svm_type c_svc
kernel_type linear
nr_class 5
total_sv 129
rho -0.10199201783684843 -0.03739976123993833 0.6237880801057841 0.23810554427904493 0.016410482712336225 0.5934332062323034 0.18228519098836288 0.63110149983857 0.132794242115923 -1.6136521759864004
label 1 3 2 4 0
probA -2.7957165641975124 -2.953076035621085 -4.200858361575529 -3.7838545724827135 -2.6762869068879946 -3.4904379898241027 -3.1778758851312645 -3.8222680276350482 -3.636062965307627 -4.356100856189298
probB -0.2864271032242036 0.1376891156550375 0.18280359706698476 0.0680281079003613 -0.361597935409785 0.9832073593500434 0.7798718486541962 0.4309021124726832 0.2255612161331293 -0.1992459924637658
nr_sv 8 5 10 64 42
SV
0.09867466762477169 0.04204740274534081 0.08125311898765668 0.028176832158738573 1:0.013807007111608982 2:0.02948530577123165 3:0.1859382539987564 4:0.03962196037173271 5:0.0 6:0.0026934288907796144 7:0.009632599540054798 8:0.012737810611724854 9:0.021186955273151398 10:0.1009901911020279 11:0.25856223702430725 12:0.4271143972873688 13:0.05309077352285385 14:0.060166724026203156 15:0.0940880998969078 16:0.20627906918525696 17:0.04757576808333397 18:0.11293932795524597 19:0.1453993320465088 20:0.19061674177646637 21:0.2631934881210327 22:0.07413141429424286 23:0.040098804980516434 24:0.03948280215263367 25:0.02283485233783722 26:0.015653733164072037 27:0.06467223912477493 28:0.07613367587327957 29:0.3583373427391052 30:0.5937824249267578 31:0.033822108060121536 32:0.02813315950334072 33:0.0 34:0.01871403492987156 35:0.010928221978247166 36:0.01422890555113554 37:0.005536721553653479 38:0.11392757296562195 39:0.3396666646003723 40:0.32839110493659973 41:0.19527922570705414 42:0.18794846534729004 43:0.1667957305908203 44:0.007629003841429949 45:0.0 46:0.11572232842445374 47:0.09092842042446136 48:0.06227891519665718 49:0.26535406708717346 50:0.10890143364667892 51:0.22844740748405457 52:0.2873953878879547 53:0.3112528622150421 54:0.09137603640556335 55:0.06427304446697235 56:0.19133418798446655 57:0.17933966219425201 58:0.08629972487688065 59:0.10777239501476288 60:0.1140776127576828 61:0.06468642503023148 62:0.06129436939954758 63:0.04966668039560318 64:0.18169176578521729 65:0.018262790516018867 66:0.026909729465842247 67:0.027518538758158684 68:0.04541810229420662 69:0.026526162400841713 70:0.29901066422462463 71:0.19687709212303162 72:0.18293970823287964 73:0.06660614907741547 74:0.08152957260608673 75:0.05183120444417 76:0.044784750789403915 77:0.15574206411838531 78:0.10580292344093323 79:0.47235307097435 80:0.1850934624671936 81:0.061453692615032196 82:0.051517851650714874 83:0.07570596039295197 84:0.06271179020404816 85:0.05095308646559715 86:0.1018553301692009 87:0.09486593306064606 88:0.05189710855484009 89:0.03358490392565727 90:0.22256435453891754 91:0.09220831841230392 92:0.026219477877020836 93:0.02950269728899002 94:0.010230324231088161 95:0.00968911126255989 96:0.0015353054041042924 97:0.5978648066520691 98:0.3155856728553772 99:0.08173868060112 100:0.1524849832057953 101:0.06047128140926361 102:0.032939329743385315 103:0.05963154137134552 104:0.017829516902565956 105:0.07614415138959885 106:0.16290685534477234 107:0.06780174374580383 108:0.23915790021419525 109:0.4244641065597534 110:0.30914586782455444 111:0.10112272202968597 112:0.03330565616488457 113:0.010979482904076576 114:0.0 115:0.03658585622906685 116:0.04206603020429611 117:0.23661424219608307 118:0.3250724673271179 119:0.2265509068965912 120:0.0760539323091507 121:0.03020956739783287 122:0.00462302565574646 123:0.041432395577430725 124:0.02906622551381588 125:0.06590421497821808 126:0.22545766830444336 127:0.16069619357585907 128:0.05406751483678818 129:0.024991748854517937 130:0.05134831741452217 131:0.03870343416929245 132:0.07569929957389832 133:0.08569490164518356 134:0.2835025191307068 135:0.3063976764678955 136:0.21089936792850494 137:0.01985003799200058 138:0.002691073575988412 139:0.018654614686965942 140:0.024508731439709663 141:0.048649486154317856 142:0.18445739150047302 143:0.3090585768222809 144:0.18354187905788422 145:0.28606894612312317 146:0.042706575244665146 147:0.043403495103120804 148:0.01500904280692339 149:0.007041472010314465 150:0.006402798928320408 151:0.06706155836582184 152:0.01670512557029724 153:0.2238846719264984 154:0.4430023431777954 155:0.06511250883340836 156:0.03135773167014122 157:0.02560073882341385 158:0.0 159:0.0888228639960289 160:0.058057282119989395 161:0.10082244873046875 162:0.3761477768421173 163:0.1896531879901886 164:0.0395585335791111 165:0.08938324451446533 166:0.017039276659488678 167:0.0035070895683020353 168:0.038240086287260056 169:0.06988488882780075 170:0.034633345901966095 171:0.29027658700942993 172:0.2610982656478882 173:0.08312486857175827 174:0.09988485276699066 175:0.034392982721328735 176:0.015820613130927086 177:0.0 178:0.1292588859796524 179:0.13484539091587067 180:0.4849574565887451 181:0.08403998613357544 182:0.04612754285335541 183:0.025537235662341118 184:0.030091937631368637 185:0.022189732640981674 186:0.018424395471811295 187:0.04846113547682762 188:0.18781419098377228 189:0.4151330590248108 190:0.22238631546497345 191:0.043593697249889374 192:0.004326562397181988 193:0.01055416651070118 194:0.013365698978304863 195:0.03266260400414467 196:0.060196105390787125 197:0.14811615645885468 198:0.5333436727523804 199:0.3072865903377533 200:0.35255834460258484 201:0.07757215946912766 202:0.01479043997824192 203:0.0 204:0.019738806411623955 205:0.036977242678403854 206:0.020535297691822052 207:0.08332671970129013 208:0.23237957060337067 209:0.18734918534755707 210:0.05268781632184982 211:0.06208161637187004 212:0.00649429252371192 213:0.01781589351594448 214:0.042309049516916275 215:0.03046157956123352 216:0.2877923250198364 217:0.027122922241687775 218:0.042528532445430756 219:0.028429269790649414 220:0.06753142923116684 221:0.20352359116077423 222:0.11901184171438217 223:0.20110897719860077 224:0.028819963335990906 225:0.0801810547709465 226:0.011708795092999935 227:0.0 228:0.0029697176069021225 229:0.015104304999113083 230:0.011699466034770012 231:0.04207276925444603 232:0.7275986671447754 233:0.23130986094474792 234:0.02069084160029888 235:0.05585533007979393 236:0.003953275736421347 237:0.043477948755025864 238:0.04508887603878975 239:0.15946082770824432 240:0.055695924907922745 241:0.09567643702030182 242:0.04842685908079147 243:0.026667626574635506 244:0.02940792217850685 245:0.03576620668172836 246:0.02167186513543129 247:0.08114136010408401 248:0.1514560431241989 249:0.11421316862106323 250:0.44853898882865906 251:0.09495393931865692 252:0.0 253:0.01713520660996437 254:0.021151281893253326 255:0.019731003791093826 256:0.06608327478170395 257:0.44861000776290894 258:0.1331324726343155 259:0.10700385272502899 260:0.04914780706167221 261:0.03759986162185669 262:0.06764186918735504 263:0.10403913259506226 264:0.4763265550136566 265:0.13063646852970123 266:0.1766873598098755 267:0.028111973777413368 268:0.03779112547636032 269:0.014232275076210499 270:0.014593709260225296 271:0.04571422189474106 272:0.013665067963302135 273:0.06463425606489182 274:0.15340875089168549 275:0.20597292482852936 276:0.23054102063179016 277:0.239584818482399 278:0.03971979767084122 279:0.05147932097315788 280:0.024406127631664276 281:0.06171334162354469 282:0.3918682634830475 283:0.28224101662635803 284:0.18771514296531677 285:0.06879765540361404 286:0.04435279592871666 287:0.01413086149841547 288:0.009531190618872643 289:0.11219686269760132 290:0.28550469875335693 291:0.7296968102455139 292:0.05262047052383423 293:0.018519483506679535 294:0.010060764849185944 295:0.01645083911716938 296:0.017794881016016006 297:0.010279981419444084 298:0.06397248804569244 299:0.11830625683069229 300:0.137301504611969 301:0.03952794894576073 302:0.04835507273674011 303:0.05252673476934433 304:0.039030782878398895 305:0.07906649261713028 306:0.2527500092983246 307:0.05194411799311638 308:0.16372619569301605 309:0.20616595447063446 310:0.09375317394733429 311:0.25644198060035706 312:0.0584835559129715 313:0.05434465780854225 314:0.03674625977873802 315:0.09444595873355865 316:0.09422490745782852 317:0.08049485832452774 318:0.09266655147075653 319:0.11342011392116547 320:0.11214880645275116 321:0.04258856177330017 322:0.08218510448932648 323:0.03657030686736107 324:0.1782718300819397 
0.1323202786544881 0.12405173571234057 0.10698064437109513 0.16912319063236037 1:0.2764545679092407 2:0.20354291796684265 3:0.33916014432907104 4:0.11896328628063202 5:0.09720692038536072 6:0.13096286356449127 7:0.035607870668172836 8:0.10136597603559494 9:0.26723188161849976 10:0.21295131742954254 11:0.16758978366851807 12:0.16786307096481323 13:0.08267706632614136 14:0.06742636114358902 15:0.10187405347824097 16:0.21410126984119415 17:0.16334113478660583 18:0.09431757777929306 19:0.3491838872432709 20:0.3065478801727295 21:0.008662089705467224 22:0.03580506145954132 23:0.027437057346105576 24:0.05881895497441292 25:0.18970458209514618 26:0.13878877460956573 27:0.2435508519411087 28:0.20191241800785065 29:0.07747951149940491 30:0.13881707191467285 31:0.09524036943912506 32:0.046371448785066605 33:0.052295293658971786 34:0.06649522483348846 35:0.11792802810668945 36:0.06521321833133698 37:0.10387551039457321 38:0.12116484344005585 39:0.17529718577861786 40:0.08443206548690796 41:0.3693954348564148 42:0.03007000871002674 43:0.07308781147003174 44:0.06222548708319664 45:0.11599262058734894 46:0.16970795392990112 47:0.07612969726324081 48:0.09246017038822174 49:0.20387092232704163 50:0.30220121145248413 51:0.10032647103071213 52:0.08318689465522766 53:0.11334947496652603 54:0.20390181243419647 55:0.18152056634426117 56:0.1821054071187973 57:0.2762763500213623 58:0.053624775260686874 59:0.16333237290382385 60:0.11014541238546371 61:0.16886551678180695 62:0.21333234012126923 63:0.15124736726284027 64:0.35805976390838623 65:0.05229326710104942 66:0.039791543036699295 67:0.017281699925661087 68:0.043300919234752655 69:0.022327501326799393 70:0.02862194925546646 71:0.04674021154642105 72:0.33162200450897217 73:0.16512466967105865 74:0.2638508975505829 75:0.18611596524715424 76:0.06239582970738411 77:0.15202461183071136 78:0.06440965086221695 79:0.11249028146266937 80:0.033978965133428574 81:0.0779007151722908 82:0.17153605818748474 83:0.18873436748981476 84:0.1614965796470642 85:0.07813367992639542 86:0.19567547738552094 87:0.08621598035097122 88:0.34716758131980896 89:0.35327568650245667 90:0.06266918778419495 91:0.14156560599803925 92:0.03218792378902435 93:0.007402394898235798 94:0.03543686866760254 95:0.06541717797517776 96:0.08045711368322372 97:0.2590356171131134 98:0.21835772693157196 99:0.11393509060144424 100:0.22958628833293915 101:0.11731022596359253 102:0.3748696446418762 103:0.08288490027189255 104:0.045004747807979584 105:0.013314365409314632 106:0.0 107:0.05389966815710068 108:0.2129782736301422 109:0.11482948064804077 110:0.0919853076338768 111:0.23454345762729645 112:0.07933066785335541 113:0.07404719293117523 114:0.2554132044315338 115:0.3970438539981842 116:0.12638044357299805 117:0.09502606093883514 118:0.05004190281033516 119:0.14358557760715485 120:0.021550845354795456 121:0.1267107129096985 122:0.04255439713597298 123:0.12202594429254532 124:0.18910039961338043 125:0.20339904725551605 126:0.15366603434085846 127:0.04066524654626846 128:0.06688790768384933 129:0.08472959697246552 130:0.11188416928052902 131:0.062293265014886856 132:0.1421205699443817 133:0.12136934697628021 134:0.2578241229057312 135:0.16101185977458954 136:0.41232913732528687 137:0.17560367286205292 138:0.014718757942318916 139:0.023336417973041534 140:0.0 141:0.022024044767022133 142:0.08876153826713562 143:0.14999166131019592 144:0.3421872556209564 145:0.3317437767982483 146:0.06359831988811493 147:0.11405730992555618 148:0.06343791633844376 149:0.043562207370996475 150:0.08205191791057587 151:0.04588088020682335 152:0.19409574568271637 153:0.24217721819877625 154:0.3502424359321594 155:0.06006636843085289 156:0.02013521082699299 157:0.008823662996292114 158:0.04384790360927582 159:0.024747639894485474 160:0.004362332634627819 161:0.04486335813999176 162:0.32010677456855774 163:0.17979900538921356 164:0.06812649965286255 165:0.0990837886929512 166:0.06505119800567627 167:0.1384783685207367 168:0.09613768756389618 169:0.044020459055900574 170:0.06708317250013351 171:0.40404102206230164 172:0.3712846040725708 173:0.022552071139216423 174:0.010266285389661789 175:0.009585989639163017 176:0.0072593605145812035 177:0.004988518077880144 178:0.01739192008972168 179:0.02769058756530285 180:0.37307462096214294 181:0.24386736750602722 182:0.06584281474351883 183:0.22478345036506653 184:0.10573067516088486 185:0.039671238511800766 186:0.12189369648694992 187:0.028715059161186218 188:0.1381174921989441 189:0.3010193109512329 190:0.1772380918264389 191:0.2165425717830658 192:0.39502203464508057 193:0.1076517403125763 194:0.12037672102451324 195:0.03046424686908722 196:0.011476817540824413 197:0.17336614429950714 198:0.05280943587422371 199:0.09377789497375488 200:0.06915213912725449 201:0.05055830627679825 202:0.07448956370353699 203:0.08140774816274643 204:0.056312330067157745 205:0.06239169463515282 206:0.05046166852116585 207:0.4714294672012329 208:0.15500403940677643 209:0.12385381013154984 210:0.17949196696281433 211:0.021462155506014824 212:0.023276835680007935 213:0.03360120207071304 214:0.06650006026029587 215:0.17494937777519226 216:0.29034850001335144 217:0.09033804386854172 218:0.1226578876376152 219:0.1330030858516693 220:0.05311140790581703 221:0.03591776639223099 222:0.11849762499332428 223:0.08172902464866638 224:0.1411379724740982 225:0.04948956519365311 226:0.32861730456352234 227:0.4234636425971985 228:0.1926153302192688 229:0.06603699177503586 230:0.0 231:0.03152145817875862 232:0.025443853810429573 233:0.0714096873998642 234:0.12851643562316895 235:0.13364097476005554 236:0.29224294424057007 237:0.41183194518089294 238:0.05103873088955879 239:0.03125154599547386 240:0.07183424383401871 241:0.16995376348495483 242:0.16695226728916168 243:0.09842411428689957 244:0.04529375210404396 245:0.11986061185598373 246:0.24257798492908478 247:0.0751258060336113 248:0.11054620891809464 249:0.09162025898694992 250:0.26133543252944946 251:0.1951315850019455 252:0.06262985616922379 253:0.19839537143707275 254:0.12249510735273361 255:0.20549878478050232 256:0.07452349364757538 257:0.04005972668528557 258:0.01888875477015972 259:0.057224154472351074 260:0.13520866632461548 261:0.23124046623706818 262:0.19080159068107605 263:0.019502932205796242 264:0.018072348088026047 265:0.04736652970314026 266:0.058642249554395676 267:0.030414408072829247 268:0.035494085401296616 269:0.104490727186203 270:0.18744874000549316 271:0.11992448568344116 272:0.06389189511537552 273:0.11692154407501221 274:0.13965021073818207 275:0.40518805384635925 276:0.06594415009021759 277:0.060235489159822464 278:0.0770316943526268 279:0.02413608506321907 280:0.0288237314671278 281:0.088567353785038 282:0.09208313375711441 283:0.12480112165212631 284:0.6727681159973145 285:0.0841999426484108 286:0.06632159650325775 287:0.03289168328046799 288:0.0400245375931263 289:0.10090180486440659 290:0.037708040326833725 291:0.06732212007045746 292:0.04623132571578026 293:0.07167524099349976 294:0.0875530019402504 295:0.18809546530246735 296:0.121519073843956 297:0.2064264863729477 298:0.09137454628944397 299:0.028020640835165977 300:0.042116470634937286 301:0.013893968425691128 302:0.01581876166164875 303:0.07293254137039185 304:0.24561673402786255 305:0.487042099237442 306:0.2709662914276123 307:0.08312984555959702 308:0.13615061342716217 309:0.20445412397384644 310:0.04746745526790619 311:0.20362459123134613 312:0.09899850934743881 313:0.09865936636924744 314:0.04515410587191582 315:0.01821022480726242 316:0.004962227772921324 317:0.11981067061424255 318:0.43983393907546997 319:0.10046090185642242 320:0.14055626094341278 321:0.07336980104446411 322:0.28401854634284973 323:0.049052655696868896 324:0.17183475196361542 
0.0 0.020731507829736026 0.062354151945921775 0.061599526563242905 1:0.2077469527721405 2:0.10018870234489441 3:0.10551344603300095 4:0.032584819942712784 5:0.02665325254201889 6:0.09852539002895355 7:0.0021478692069649696 8:0.05594676733016968 9:0.29476386308670044 10:0.07880254834890366 11:0.10811938345432281 12:0.12453678250312805 13:0.04897069185972214 14:0.18175353109836578 15:0.1254059076309204 16:0.044978655874729156 17:0.10046105086803436 18:0.08598168194293976 19:0.3895478844642639 20:0.13913245499134064 21:0.0780511274933815 22:0.05216606333851814 23:0.008864028379321098 24:0.07179338485002518 25:0.032366033643484116 26:0.06460347771644592 27:0.11144616454839706 28:0.0532556027173996 29:0.6346590518951416 30:0.3054473400115967 31:0.09174487739801407 32:0.03311258181929588 33:0.09215214848518372 34:0.042758431285619736 35:0.07494591176509857 36:0.054074618965387344 37:0.06825663149356842 38:0.14813809096813202 39:0.32704174518585205 40:0.32386142015457153 41:0.044650088995695114 42:0.1162266731262207 43:0.06521318107843399 44:0.05329055339097977 45:0.09054753929376602 46:0.01939442753791809 47:0.05264033377170563 48:0.1233639121055603 49:0.1585398018360138 50:0.19077898561954498 51:0.2531141936779022 52:0.14110146462917328 53:0.12474650144577026 54:0.08139512687921524 55:0.05489979684352875 56:0.18403048813343048 57:0.6169134974479675 58:0.1105707511305809 59:0.0729113444685936 60:0.008569207973778248 61:0.0168282613158226 62:0.020363595336675644 63:0.00225750426761806 64:0.15340358018875122 65:0.04904945194721222 66:0.059683386236429214 67:0.09836935997009277 68:0.20339322090148926 69:0.06828241050243378 70:0.1284276396036148 71:0.053537823259830475 72:0.0659477561712265 73:0.0065419552847743034 74:0.010375486686825752 75:0.0037109798286110163 76:0.028252916410565376 77:0.10325351357460022 78:0.27223965525627136 79:0.33128276467323303 80:0.13508431613445282 81:0.024636566638946533 82:0.009206169284880161 83:0.011597772128880024 84:0.0066846502013504505 85:0.0144679369404912 86:0.021215539425611496 87:0.01511287409812212 88:0.0774010643362999 89:0.017557676881551743 90:0.01043752208352089 91:0.0 92:0.0 93:0.0 94:0.005367862060666084 95:0.022899026051163673 96:0.08643052726984024 97:0.7577706575393677 98:0.23123686015605927 99:0.04598859325051308 100:0.030398504808545113 101:0.03570990636944771 102:0.012817155569791794 103:0.009383742697536945 104:0.0026240588631480932 105:0.08953644335269928 106:0.34613344073295593 107:0.08230574429035187 108:0.05670880153775215 109:0.5415948629379272 110:0.18672144412994385 111:0.03882630169391632 112:0.0017631971277296543 113:0.009886314161121845 114:0.0 115:0.013960430398583412 116:0.0634574219584465 117:0.2464527189731598 118:0.21020416915416718 119:0.4226894676685333 120:0.052752479910850525 121:0.030333999544382095 122:0.003983205650001764 123:0.0017631971277296543 124:0.013304589316248894 125:0.028308570384979248 126:0.09532174468040466 127:0.32599887251853943 128:0.016040951013565063 129:0.00839732401072979 130:0.0 131:0.017767470329999924 132:0.030081991106271744 133:0.020510854199528694 134:0.1125418096780777 135:0.3449031114578247 136:0.1841222196817398 137:0.04524772986769676 138:0.016776466742157936 139:0.006010585930198431 140:0.005593195557594299 141:0.0063896095380187035 142:0.029462119564414024 143:0.20927684009075165 144:0.2184745967388153 145:0.3497990071773529 146:0.1879243105649948 147:0.07520982623100281 148:0.04372603818774223 149:0.009087428450584412 150:0.05101342126727104 151:0.12425565719604492 152:0.020788494497537613 153:0.30845585465431213 154:0.426411509513855 155:0.015678154304623604 156:0.03311905264854431 157:0.018786996603012085 158:0.030161652714014053 159:0.0051271007396280766 160:0.007408267818391323 161:0.0813526064157486 162:0.21805070340633392 163:0.30504822731018066 164:0.003188679227605462 165:0.0 166:0.03413590416312218 167:0.01946413330733776 168:0.04835822433233261 169:0.0652666836977005 170:0.11776286363601685 171:0.40256035327911377 172:0.3217948079109192 173:0.011614976450800896 174:0.009523502551019192 175:0.011698299087584019 176:0.0229942686855793 177:0.017655987292528152 178:0.012128878384828568 179:0.02835635282099247 180:0.315501868724823 181:0.14911659061908722 182:0.03680231794714928 183:0.004958536010235548 184:0.014688233844935894 185:0.033751264214515686 186:0.0642956793308258 187:0.09828878194093704 188:0.32909563183784485 189:0.22320720553398132 190:0.12658189237117767 191:0.06498564779758453 192:0.030073590576648712 193:0.007241403684020042 194:0.0 195:0.017892947420477867 196:0.07528109103441238 197:0.3659910261631012 198:0.4019124507904053 199:0.3045528531074524 200:0.1694643646478653 201:0.0870366320014 202:0.008146370761096478 203:0.008876443840563297 204:0.013778243213891983 205:0.0053184605203568935 206:0.06834195554256439 207:0.19402964413166046 208:0.3379974961280823 209:0.19717435538768768 210:0.026893408969044685 211:0.017817934975028038 212:0.006996897514909506 213:0.0031291076447814703 214:0.005045534577220678 215:0.050027187913656235 216:0.38982316851615906 217:0.29135817289352417 218:0.0035094257909804583 219:0.04071500524878502 220:0.0064956857822835445 221:0.020823441445827484 222:0.052740681916475296 223:0.12037425488233566 224:0.0662793219089508 225:0.21262899041175842 226:0.04480588436126709 227:0.0 228:0.004244084469974041 229:0.009650921449065208 230:0.00905846618115902 231:0.1072855070233345 232:0.46851634979248047 233:0.4499185383319855 234:0.11325559765100479 235:0.22553730010986328 236:0.2183753103017807 237:0.07187779247760773 238:0.006773282308131456 239:0.041718851774930954 240:0.036973536014556885 241:0.0395895317196846 242:0.011104712262749672 243:0.17574000358581543 244:0.06622438132762909 245:0.05486128479242325 246:0.055645208805799484 247:0.019309112802147865 248:0.013760684989392757 249:0.0965496152639389 250:0.4082154333591461 251:0.262995183467865 252:0.04455351084470749 253:0.07163503021001816 254:0.049872443079948425 255:0.06164022907614708 256:0.03836892917752266 257:0.134023517370224 258:0.050045669078826904 259:0.2636718451976776 260:0.05764690041542053 261:0.05474979802966118 262:0.037470921874046326 263:0.017641078680753708 264:0.039403293281793594 265:0.043984025716781616 266:0.4075893759727478 267:0.04504447057843208 268:0.03364585340023041 269:0.10067937523126602 270:0.01352169644087553 271:0.002334828721359372 272:0.011522018350660801 273:0.013050975278019905 274:0.00833867397159338 275:0.044915106147527695 276:0.24283768236637115 277:0.6403471231460571 278:0.050897542387247086 279:0.020851459354162216 280:0.00805614236742258 281:0.016148634254932404 282:0.15601761639118195 283:0.31138303875923157 284:0.3004574775695801 285:0.13898159563541412 286:0.0 287:0.01528947614133358 288:0.010049506090581417 289:0.10506485402584076 290:0.3689208924770355 291:0.3293629288673401 292:0.03818390890955925 293:0.03094298392534256 294:0.004246415104717016 295:0.0 296:0.03953973948955536 297:0.027914151549339294 298:0.049872130155563354 299:0.31053993105888367 300:0.09090747684240341 301:0.05466558784246445 302:0.05186076462268829 303:0.07291338592767715 304:0.020016523078083992 305:0.0253768190741539 306:0.03259275108575821 307:0.029735447838902473 308:0.08623231947422028 309:0.749527633190155 310:0.07347384840250015 311:0.03203369677066803 312:0.007830002345144749 313:0.004028503317385912 314:0.007938007824122906 315:0.00818075891584158 316:0.05423116683959961 317:0.08799083530902863 318:0.12093527615070343 319:0.010817301459610462 320:0.11553769558668137 321:0.034478601068258286 322:0.027755247429013252 323:0.020809179171919823 324:0.03747332841157913 
0.10971630704743572 0.14070680286546244 0.2021233177588152 0.14747060254645875 1:0.19749779999256134 2:0.09513364732265472 3:0.23709650337696075 4:0.25726690888404846 5:0.14318381249904633 6:0.060741618275642395 7:0.02088717557489872 8:0.039239149540662766 9:0.1391793191432953 10:0.06842214614152908 11:0.12406840920448303 12:0.2064497321844101 13:0.182589590549469 14:0.20723189413547516 15:0.13829822838306427 16:0.025883294641971588 17:0.13173045217990875 18:0.15176630020141602 19:0.24743781983852386 20:0.1899263709783554 21:0.2596948742866516 22:0.10117955505847931 23:0.13278186321258545 24:0.016873208805918694 25:0.11277655512094498 26:0.06565241515636444 27:0.10488896816968918 28:0.03909910470247269 29:0.08054571598768234 30:0.3328593671321869 31:0.4117588996887207 32:0.17172899842262268 33:0.11473905295133591 34:0.1669294685125351 35:0.05737273395061493 36:0.041833486407995224 37:0.010595384985208511 38:0.016837872564792633 39:0.033991601318120956 40:0.01769927702844143 41:0.1679990589618683 42:0.1518303006887436 43:0.10937752574682236 44:0.13795359432697296 45:0.042414017021656036 46:0.016494782641530037 47:0.022157644852995872 48:0.013023791834712029 49:0.00782985519617796 50:0.16801708936691284 51:0.008236514404416084 52:0.044964179396629333 53:0.024523846805095673 54:0.004673744551837444 55:9.626336395740509E-4 56:0.008218483999371529 57:0.025066334754228592 58:0.03286166489124298 59:0.1967400461435318 60:0.32579851150512695 61:0.4546287953853607 62:0.015607619658112526 63:0.003903648117557168 64:0.0044922903180122375 65:0.0021525141783058643 66:0.0 67:0.010276063345372677 68:0.03512274846434593 69:0.14691229164600372 70:0.7062931656837463 71:0.08218932896852493 72:0.0016361626330763102 73:0.03441612794995308 74:0.011844604276120663 75:0.050566017627716064 76:0.01196842547506094 77:0.6060661673545837 78:0.04452718049287796 79:0.026876652613282204 80:0.024402204900979996 81:0.010330489836633205 82:0.41949793696403503 83:0.016276268288493156 84:0.025855453684926033 85:0.02420920319855213 86:0.42319464683532715 87:0.021436380222439766 88:0.1294889748096466 89:0.2647755444049835 90:0.24266661703586578 91:0.052610550075769424 92:0.03276438266038895 93:0.06504979729652405 94:0.0055922637693583965 95:0.04406224191188812 96:0.08993218094110489 97:0.22661791741847992 98:0.07719039171934128 99:0.051136165857315063 100:0.1649451106786728 101:0.04722686856985092 102:0.02936759777367115 103:0.06230827048420906 104:0.07530932128429413 105:0.046646635979413986 106:0.01880645379424095 107:0.02585212141275406 108:0.036413438618183136 109:0.19350942969322205 110:0.4201771914958954 111:0.48485809564590454 112:0.12943856418132782 113:0.03779454156756401 114:0.013663345016539097 115:0.011918061412870884 116:0.03926573693752289 117:0.039255328476428986 118:0.0425884947180748 119:0.18281841278076172 120:0.299015074968338 121:0.06729518622159958 122:0.12811174988746643 123:0.09303323924541473 124:0.06739012897014618 125:0.11580246686935425 126:0.027614776045084 127:0.3686365485191345 128:0.12308050692081451 129:0.10956200957298279 130:0.007513547781854868 131:8.60283151268959E-4 132:0.006262956187129021 133:0.034424662590026855 134:0.03302941843867302 135:0.19385220110416412 136:0.2816936671733856 137:0.06379092484712601 138:0.003041560295969248 139:0.04974190890789032 140:0.009063542820513248 141:0.007896490395069122 142:0.016601791605353355 143:0.01816016435623169 144:0.2582939863204956 145:0.3036164939403534 146:0.053542427718639374 147:0.03704134374856949 148:0.03440193831920624 149:0.067141592502594 150:0.06365944445133209 151:0.1163376122713089 152:0.10760457068681717 153:0.1194901242852211 154:0.029133230447769165 155:0.02616291120648384 156:0.04200349003076553 157:0.016194144263863564 158:0.019986841827630997 159:0.0075943018309772015 160:0.4086613655090332 161:0.42977088689804077 162:0.05932663753628731 163:0.3369600474834442 164:0.019969869405031204 165:0.005488642491400242 166:0.0 167:0.0 168:0.0334215983748436 169:0.026472175493836403 170:0.06049193814396858 171:0.3171912133693695 172:0.19330498576164246 173:0.04089173302054405 174:0.0 175:0.017016148194670677 176:0.010744995437562466 177:0.02157244272530079 178:0.006530572194606066 179:0.15927979350090027 180:0.45805996656417847 181:0.10947233438491821 182:0.09387737512588501 183:0.0440145879983902 184:0.05200325697660446 185:0.034745778888463974 186:0.12224610894918442 187:0.41759756207466125 188:0.2085154950618744 189:0.3214612305164337 190:0.12000976502895355 191:0.03398112952709198 192:0.03948965668678284 193:0.03573967143893242 194:0.042088449001312256 195:0.027928194031119347 196:0.031025918200612068 197:0.06311899423599243 198:0.047346264123916626 199:0.3378742039203644 200:0.02454289421439171 201:0.013049249537289143 202:0.008984931744635105 203:0.018362190574407578 204:0.023685498163104057 205:0.09609583020210266 206:0.0672493651509285 207:0.6813662052154541 208:0.05894612893462181 209:0.016763802617788315 210:0.016757726669311523 211:0.012269343249499798 212:0.04932824522256851 213:0.03673524409532547 214:0.007734335493296385 215:0.08381552994251251 216:0.009523045271635056 217:0.08790953457355499 218:0.0486709326505661 219:0.0 220:0.028153210878372192 221:0.03763183578848839 222:0.03176199644804001 223:0.048007506877183914 224:0.26911014318466187 225:0.24814489483833313 226:0.17515090107917786 227:0.0926642119884491 228:0.01517286617308855 229:0.0172530859708786 230:0.009127677418291569 231:0.029125841334462166 232:0.034758973866701126 233:0.04603127762675285 234:0.1273210346698761 235:0.008068036288022995 236:0.0 237:0.01099308766424656 238:0.020229756832122803 239:0.011270635761320591 240:0.046190641820430756 241:0.6852200627326965 242:0.3295274078845978 243:0.04017246142029762 244:0.016900494694709778 245:0.03585454821586609 246:0.020244192332029343 247:0.04664623364806175 248:0.408854603767395 249:0.09550213813781738 250:0.16300082206726074 251:0.019369790330529213 252:0.012420088984072208 253:0.2550356090068817 254:0.07107024639844894 255:0.0686860904097557 256:0.019703133031725883 257:0.008445417508482933 258:0.017499756067991257 259:0.041276752948760986 260:0.07694626599550247 261:0.19863303005695343 262:0.2829243540763855 263:0.3861483037471771 264:0.03431672602891922 265:0.04297034814953804 266:0.003046903293579817 267:0.0 268:0.009053593501448631 269:0.016969965770840645 270:0.1019945740699768 271:0.0567590594291687 272:0.06534109264612198 273:0.21122904121875763 274:0.12536917626857758 275:0.2128065824508667 276:0.04188686981797218 277:0.017778804525732994 278:0.02890031784772873 279:0.036093831062316895 280:0.06388591229915619 281:0.44385606050491333 282:0.5604759454727173 283:0.02499694935977459 284:0.021586084738373756 285:0.011935676448047161 286:0.022178806364536285 287:0.0 288:0.010505341924726963 289:0.38036975264549255 290:0.1283939927816391 291:0.008404852822422981 292:0.04595072939991951 293:0.02700481191277504 294:0.015221154317259789 295:0.060152385383844376 296:0.06472509354352951 297:0.1881089061498642 298:0.026403721421957016 299:0.01752544194459915 300:0.010660819709300995 301:0.016641808673739433 302:0.0031188710127025843 303:0.018032131716609 304:0.012425119057297707 305:0.014575404115021229 306:0.023060262203216553 307:0.0325947143137455 308:0.09260999411344528 309:0.11782348901033401 310:0.11966639757156372 311:0.5608431100845337 312:0.17761273682117462 313:0.09167475998401642 314:0.05676278471946716 315:0.033090293407440186 316:0.003945094533264637 317:0.047749508172273636 318:0.0682615265250206 319:0.23292279243469238 320:0.5363290905952454 321:0.18014048039913177 322:0.10912488400936127 323:0.0 324:0.0 
0.08619132048060339 0.08022770185776291 0.12419182816558819 0.05811009136631986 1:0.19864045083522797 2:0.17543262243270874 3:0.12261556088924408 4:0.05965351313352585 5:0.088870570063591 6:0.06442463397979736 7:0.10511887073516846 8:0.14075151085853577 9:0.26555758714675903 10:0.1691829413175583 11:0.14975544810295105 12:0.1664828062057495 13:0.08392652869224548 14:0.04402606934309006 15:0.15731973946094513 16:0.18347901105880737 17:0.09505932033061981 18:0.06866216659545898 19:0.25276049971580505 20:0.19623489677906036 21:0.11295187473297119 22:0.09055518358945847 23:0.06598219275474548 24:0.04012427479028702 25:0.007332562934607267 26:0.04960927367210388 27:0.18814204633235931 28:0.1923324018716812 29:0.4365973174571991 30:0.31963780522346497 31:0.12027742713689804 32:0.18823650479316711 33:0.22697420418262482 34:0.12878434360027313 35:0.1014561802148819 36:0.11191869527101517 37:0.10822451859712601 38:0.11443304270505905 39:0.27174609899520874 40:0.1834055632352829 41:0.11539644002914429 42:0.04407161846756935 43:0.09902416169643402 44:0.05285346135497093 45:0.06215773895382881 46:0.08036385476589203 47:0.060755472630262375 48:0.19222970306873322 49:0.3136882483959198 50:0.35242921113967896 51:0.07893537729978561 52:0.10445421189069748 53:0.013254840858280659 54:0.09638828784227371 55:0.06986097246408463 56:0.19752970337867737 57:0.46359917521476746 58:0.11621788144111633 59:0.046534016728401184 60:0.029608462005853653 61:0.08008647710084915 62:0.05460604280233383 63:0.041044529527425766 64:0.009062953293323517 65:0.059374045580625534 66:0.12027274072170258 67:0.39741334319114685 68:0.24291186034679413 69:0.13211974501609802 70:0.02659681811928749 71:0.005615067668259144 72:0.0028871602844446898 73:0.004226724151521921 74:0.04266888648271561 75:0.038578033447265625 76:0.053048793226480484 77:0.24129216372966766 78:0.22362738847732544 79:0.09661127626895905 80:0.09619983285665512 81:0.009899847209453583 82:0.002852505072951317 83:0.0025203314144164324 84:0.008233053609728813 85:0.009823675267398357 86:0.22515583038330078 87:0.07634611427783966 88:0.17384152114391327 89:0.10327845811843872 90:0.016358306631445885 91:0.024498607963323593 92:0.012819353491067886 93:0.032584838569164276 94:0.024330733343958855 95:0.04609033837914467 96:0.3330569863319397 97:0.38549312949180603 98:0.029757414013147354 99:0.0011618152493610978 100:0.0 101:0.003150413976982236 102:0.0 103:0.0 104:0.02825799025595188 105:0.10872484743595123 106:0.6897028088569641 107:0.1255839318037033 108:0.005664895288646221 109:0.14657625555992126 110:0.40002208948135376 111:0.047871485352516174 112:0.013388087972998619 113:0.02592587284743786 114:0.01870504952967167 115:0.041944220662117004 116:0.07682403922080994 117:0.09890848398208618 118:0.11943020671606064 119:0.5811972618103027 120:0.0850035548210144 121:0.014875943772494793 122:0.0 123:0.0 124:0.009172837249934673 125:0.03495251014828682 126:0.0433172881603241 127:0.5100681781768799 128:0.06192443519830704 129:0.01055482029914856 130:0.0 131:0.015294273383915424 132:0.01906134933233261 133:0.007036976516246796 134:0.026992589235305786 135:0.10426094383001328 136:0.31750622391700745 137:0.20879992842674255 138:0.01609555073082447 139:0.014369742944836617 140:0.011237154714763165 141:0.009498321451246738 142:0.02753457985818386 143:0.0219188891351223 144:0.11040018498897552 145:0.2948746681213379 146:0.2608465254306793 147:0.43712833523750305 148:0.1430463194847107 149:0.03525729849934578 150:0.04999927803874016 151:0.0205888282507658 152:0.07670832425355911 153:0.09796074032783508 154:0.14257846772670746 155:0.103281170129776 156:0.32765433192253113 157:0.057732827961444855 158:0.03278607875108719 159:0.05100257322192192 160:0.19891619682312012 161:0.06933071464300156 162:0.09882022440433502 163:0.3206658363342285 164:0.09751111268997192 165:0.13185319304466248 166:0.03747998923063278 167:0.019882744178175926 168:0.025697920471429825 169:0.033991165459156036 170:0.041975751519203186 171:0.20225118100643158 172:0.22270122170448303 173:0.00889794435352087 174:0.019060645252466202 175:0.008264947682619095 176:0.010472558438777924 177:0.023832496255636215 178:0.028820419684052467 179:0.03655295446515083 180:0.43053507804870605 181:0.45386189222335815 182:0.06702985614538193 183:0.0 184:0.008661871775984764 185:0.04618455097079277 186:0.06268084049224854 187:0.07728520035743713 188:0.06870520859956741 189:0.18354226648807526 190:0.03215717524290085 191:0.057361163198947906 192:0.04569157212972641 193:0.008935266174376011 194:0.05142073333263397 195:0.022577062249183655 196:0.2225068360567093 197:0.5400686264038086 198:0.0802164226770401 199:0.41861432790756226 200:0.026275567710399628 201:0.007069196552038193 202:0.0016457802848890424 203:0.0022385031916201115 204:0.0 205:0.018779246136546135 206:0.10129033774137497 207:0.2214408814907074 208:0.23385904729366302 209:0.02576424553990364 210:0.0247675571590662 211:0.013989132829010487 212:0.008903946727514267 213:0.05120457336306572 214:0.005541935563087463 215:0.11005706340074539 216:0.2740296721458435 217:0.14113377034664154 218:0.041298381984233856 219:0.014570897445082664 220:0.01839168556034565 221:0.022199030965566635 222:0.040308255702257156 223:0.0481034554541111 224:0.14613540470600128 225:0.4081978499889374 226:0.07334602624177933 227:0.018608329817652702 228:0.03712069243192673 229:0.01787644997239113 230:0.020219232887029648 231:0.0 232:0.012597555294632912 233:0.3260411322116852 234:0.3960070013999939 235:0.11031908541917801 236:0.018603511154651642 237:0.014626685529947281 238:0.00591799383983016 239:0.0046585481613874435 240:0.04299371317028999 241:0.12866967916488647 242:0.23341494798660278 243:0.1294814944267273 244:0.025403514504432678 245:0.0 246:0.0 247:0.0033067609183490276 248:0.012023227289319038 249:0.027881726622581482 250:0.3700423240661621 251:0.4972057044506073 252:0.16166271269321442 253:0.1421167254447937 254:0.04539186879992485 255:0.030125755816698074 256:0.010640239343047142 257:0.04991420730948448 258:0.03375724330544472 259:0.13404999673366547 260:0.13697515428066254 261:0.13278503715991974 262:0.27201971411705017 263:0.05041119456291199 264:0.01182717364281416 265:0.01351251732558012 266:0.013225139118731022 267:0.011406611651182175 268:0.026969365775585175 269:0.0411158949136734 270:0.19260366261005402 271:0.078212209045887 272:0.04636407271027565 273:0.0894249901175499 274:0.03266394883394241 275:0.10745084285736084 276:0.03525460138916969 277:0.460872083902359 278:0.24981985986232758 279:0.07651548832654953 280:0.016184361651539803 281:0.06476905941963196 282:0.07725933194160461 283:0.021656284108757973 284:0.6825101375579834 285:0.10608900338411331 286:0.031301338225603104 287:0.043488096445798874 288:0.020542986690998077 289:0.2528783977031708 290:0.08608889579772949 291:0.05588468536734581 292:0.03043494187295437 293:0.0 294:0.0 295:0.0031341153662651777 296:0.035514965653419495 297:0.31901320815086365 298:0.19120188057422638 299:0.3458158075809479 300:0.01870669238269329 301:0.028515871614217758 302:0.0 303:0.0 304:0.03985943645238876 305:0.07682573050260544 306:0.07358258217573166 307:0.062197018414735794 308:0.027483535930514336 309:0.03778090327978134 310:0.077623650431633 311:0.24816928803920746 312:0.03786659613251686 313:0.09732446074485779 314:0.07617154717445374 315:0.029612142592668533 316:0.06864514946937561 317:0.6783899664878845 318:0.2998248338699341 319:0.043326303362846375 320:0.00413557980209589 321:0.013653350993990898 322:0.05256294831633568 323:0.017646174877882004 324:0.010560334660112858 
0.05851496630514207 0.04518105481387388 0.031928817700769156 0.07348572571465815 1:0.1387109011411667 2:0.3309278190135956 3:0.6358935236930847 4:0.06138395890593529 5:0.009117206558585167 6:0.05514800548553467 7:0.0 8:0.013203203678131104 9:0.04919357970356941 10:0.050837185233831406 11:0.10041686147451401 12:0.3459048271179199 13:0.09828785806894302 14:0.07314501702785492 15:0.04552704095840454 16:0.05208789184689522 17:0.07335898280143738 18:0.04246978089213371 19:0.1412355750799179 20:0.3441888093948364 21:0.24330772459506989 22:0.07553526014089584 23:0.004187249578535557 24:0.03821965306997299 25:0.02150239795446396 26:0.007282192353159189 27:0.04877297207713127 28:0.09812764078378677 29:0.08581744134426117 30:0.17062221467494965 31:0.0734448954463005 32:0.04186264052987099 33:0.08260194957256317 34:0.11159559339284897 35:0.10166706144809723 36:0.0868534967303276 37:0.22224101424217224 38:0.08429111540317535 39:0.08051875978708267 40:0.15247665345668793 41:0.10087191313505173 42:0.12314233183860779 43:0.06552662700414658 44:0.14864979684352875 45:0.2438318431377411 46:0.1611449122428894 47:0.10416405647993088 48:0.15429794788360596 49:0.0926378071308136 50:0.05210752412676811 51:0.13207699358463287 52:0.5454304814338684 53:0.062309760600328445 54:0.13464975357055664 55:0.20884080231189728 56:0.09693140536546707 57:0.005407241173088551 58:0.012004954740405083 59:0.32125991582870483 60:0.14586974680423737 61:0.024589944630861282 62:0.06343259662389755 63:0.08875590562820435 64:0.3430269956588745 65:0.0879475325345993 66:0.11551577597856522 67:0.012727134861052036 68:0.040292900055646896 69:0.07221711426973343 70:0.18626537919044495 71:0.13195757567882538 72:0.07538825273513794 73:0.05214216560125351 74:0.04156453162431717 75:0.020859645679593086 76:0.033137883991003036 77:0.05753388628363609 78:0.038401491940021515 79:0.448627769947052 80:0.40380948781967163 81:0.23684799671173096 82:0.21322745084762573 83:0.10951648652553558 84:0.028179693967103958 85:0.010739218443632126 86:0.046844933182001114 87:0.04547341912984848 88:0.029140830039978027 89:0.20416270196437836 90:0.3984103798866272 91:0.05451676622033119 92:0.026294754818081856 93:0.029928084462881088 94:0.03642246499657631 95:0.024732522666454315 96:0.09624483436346054 97:0.14930041134357452 98:0.3261990249156952 99:0.12460701912641525 100:0.25381386280059814 101:0.03217184543609619 102:0.0639084205031395 103:0.08962153643369675 104:0.041209444403648376 105:0.02737770974636078 106:0.0877770408987999 107:0.18213942646980286 108:0.15502174198627472 109:0.14757481217384338 110:0.09708935767412186 111:0.025647763162851334 112:0.030104637145996094 113:0.061156172305345535 114:0.11216136813163757 115:0.11235388368368149 116:0.179689422249794 117:0.18549811840057373 118:0.2219938039779663 119:0.07218475639820099 120:0.1513291895389557 121:0.008197853341698647 122:0.0 123:0.05713675916194916 124:0.22943691909313202 125:0.24698330461978912 126:0.2492559552192688 127:0.17176863551139832 128:0.14278943836688995 129:0.03609376773238182 130:0.021517887711524963 131:0.036907073110342026 132:0.06465844064950943 133:0.44139477610588074 134:0.27741870284080505 135:0.14843778312206268 136:0.4027307629585266 137:0.0651974305510521 138:0.101249098777771 139:0.08591241389513016 140:0.09398515522480011 141:0.02671082131564617 142:0.11376239359378815 143:0.05792313069105148 144:0.23270170390605927 145:0.18891233205795288 146:0.0521070696413517 147:0.01695070043206215 148:0.02821306325495243 149:0.00866334792226553 150:0.020788168534636497 151:0.030218003317713737 152:0.04982604458928108 153:0.2461385726928711 154:0.49480774998664856 155:0.14372137188911438 156:0.14332111179828644 157:0.10893912613391876 158:0.05002131313085556 159:0.03790156543254852 160:0.05712133273482323 161:0.14108654856681824 162:0.23051315546035767 163:0.45712172985076904 164:0.026759613305330276 165:0.01165617536753416 166:0.0027609113603830338 167:0.020613931119441986 168:0.017081765457987785 169:0.0038286950439214706 170:0.00874747708439827 171:0.08303572237491608 172:0.3949204385280609 173:0.16604796051979065 174:0.06702546775341034 175:0.04125119373202324 176:0.05881556123495102 177:0.04806284233927727 178:0.06759433448314667 179:0.07600260525941849 180:0.30743837356567383 181:0.21321602165699005 182:0.07344355434179306 183:0.052483852952718735 184:0.02398563362658024 185:0.06476977467536926 186:0.12625809013843536 187:0.25235483050346375 188:0.2378234714269638 189:0.22442778944969177 190:0.10590045899152756 191:0.28722596168518066 192:0.06475196778774261 193:0.15956588089466095 194:0.057028476148843765 195:0.020932849496603012 196:0.046365827322006226 197:0.08957435190677643 198:0.11677217483520508 199:0.0920267105102539 200:0.03557136282324791 201:0.00924830324947834 202:0.032385554164648056 203:0.19498448073863983 204:0.04909134656190872 205:0.1401463896036148 206:0.20885087549686432 207:0.3965568244457245 208:0.08827317506074905 209:0.08684305846691132 210:0.031033286824822426 211:0.02907206118106842 212:0.08682671934366226 213:0.13895750045776367 214:0.43897539377212524 215:0.3062685430049896 216:0.043546002358198166 217:0.22762325406074524 218:0.18398910760879517 219:0.26007595658302307 220:0.1571091264486313 221:0.01707490347325802 222:0.012730005197227001 223:0.11076609045267105 224:0.365382581949234 225:0.2649080455303192 226:0.3332125246524811 227:0.10665939748287201 228:0.11522108316421509 229:0.025635717436671257 230:0.05319639667868614 231:0.014862033538520336 232:0.11918407678604126 233:0.16154523193836212 234:0.23368790745735168 235:0.10920757055282593 236:0.034210849553346634 237:0.06480928510427475 238:0.05541103705763817 239:0.08190672844648361 240:0.13171342015266418 241:0.2856731414794922 242:0.16937224566936493 243:0.06132008507847786 244:0.1385604292154312 245:0.05822005867958069 246:0.135576993227005 247:0.2492167204618454 248:0.26339954137802124 249:0.14930874109268188 250:0.06433064490556717 251:0.09706142544746399 252:0.06720029562711716 253:0.35494112968444824 254:0.04550439119338989 255:0.024488985538482666 256:0.03883674740791321 257:0.03400660306215286 258:0.016890304163098335 259:0.015245528891682625 260:0.01983405277132988 261:0.17599272727966309 262:0.1167655885219574 263:0.0927213504910469 264:0.14154569804668427 265:0.03306389972567558 266:0.06273902207612991 267:0.10072280466556549 268:0.23766276240348816 269:0.11081575602293015 270:0.23226135969161987 271:0.07712572067975998 272:0.03564026206731796 273:0.008078870363533497 274:0.0519937127828598 275:0.674054741859436 276:0.08159475028514862 277:0.024805963039398193 278:0.0034406431950628757 279:0.12623383104801178 280:0.11776648461818695 281:0.09840437769889832 282:0.20100046694278717 283:0.14531949162483215 284:0.13072091341018677 285:0.18663468956947327 286:0.16985876858234406 287:0.0438084602355957 288:0.03642861917614937 289:0.25162196159362793 290:0.169295072555542 291:0.0685560330748558 292:0.04813019558787346 293:0.006590847857296467 294:0.04499690234661102 295:0.11033891141414642 296:0.15278056263923645 297:0.17612074315547943 298:0.36848214268684387 299:0.14781072735786438 300:0.022790919989347458 301:0.07467249035835266 302:0.020870251581072807 303:0.02526228129863739 304:0.11740618199110031 305:0.1970924437046051 306:0.12447875738143921 307:0.26792168617248535 308:0.4350053369998932 309:0.3052816092967987 310:0.11100638657808304 311:0.16124525666236877 312:0.02195790223777294 313:0.04001154378056526 314:0.09540597349405289 315:0.08797722309827805 316:0.12013823539018631 317:0.242344930768013 318:0.04738621041178703 319:0.023609766736626625 320:0.02865172177553177 321:0.004918130114674568 322:0.31425395607948303 323:0.09278063476085663 324:0.06207095831632614 
0.07974710242284216 0.11109829025385332 0.2891142868341145 0.27747569687895324 1:0.3291228711605072 2:0.03525115177035332 3:0.10483153909444809 4:0.14297600090503693 5:0.030312959104776382 6:0.08937340974807739 7:0.08691558241844177 8:0.04342717304825783 9:0.3178942799568176 10:0.10792335122823715 11:0.03911639377474785 12:0.11536212265491486 13:0.054342977702617645 14:0.077948197722435 15:0.1220242902636528 16:0.2569033205509186 17:0.11221002787351608 18:0.07955115288496017 19:0.3397659659385681 20:0.021820075809955597 21:0.05621354654431343 22:0.02261115238070488 23:0.044508472084999084 24:0.016158251091837883 25:0.09302938729524612 26:0.04535163938999176 27:0.38921111822128296 28:0.10880935937166214 29:0.4795449674129486 30:0.2510436773300171 31:0.008652950637042522 32:0.01582583226263523 33:0.03631620481610298 34:0.0409567691385746 35:0.0365581288933754 36:0.10375799983739853 37:0.08850029110908508 38:0.36013880372047424 39:0.6111767292022705 40:0.028732432052493095 41:0.021216506138443947 42:0.006482446100562811 43:0.01815057545900345 44:0.0 45:0.06564246863126755 46:0.04986613616347313 47:0.02843863144516945 48:0.33690160512924194 49:0.1021755263209343 50:0.04986385256052017 51:0.05607220530509949 52:0.06527235358953476 53:0.07432591915130615 54:0.0 55:0.14966022968292236 56:0.38043925166130066 57:0.28726184368133545 58:0.02266507036983967 59:0.023054055869579315 60:0.0 61:0.0 62:0.01753937266767025 63:0.04099544510245323 64:0.05859634280204773 65:0.1306895911693573 66:0.07919979840517044 67:0.121475949883461 68:0.030974606052041054 69:0.057497236877679825 70:0.1429155021905899 71:0.13933847844600677 72:0.044596362859010696 73:0.2860875725746155 74:0.08819343894720078 75:0.14972200989723206 76:0.08237853646278381 77:0.08778484165668488 78:0.15707233548164368 79:0.08668889850378036 80:0.06347396224737167 81:0.21379448473453522 82:0.06414183229207993 83:0.1980513036251068 84:0.07372454553842545 85:0.021444356068968773 86:0.10845427215099335 87:0.18568173050880432 88:0.5617097616195679 89:0.0855480208992958 90:0.1386382281780243 91:0.2141563892364502 92:0.02440667524933815 93:0.053438205271959305 94:0.07031745463609695 95:0.24840141832828522 96:0.14861130714416504 97:0.042309802025556564 98:0.04670695215463638 99:0.12217357754707336 100:0.3240223228931427 101:0.1019948422908783 102:0.11671974509954453 103:0.018923157826066017 104:0.042036499828100204 105:0.06829967349767685 106:0.10070968419313431 107:0.20533223450183868 108:0.09463757276535034 109:0.33027663826942444 110:0.019929125905036926 111:0.04473838210105896 112:0.02826419100165367 113:0.005711233243346214 114:0.006724669598042965 115:0.06653468310832977 116:0.07379224896430969 117:0.28352856636047363 118:0.4040457606315613 119:0.2609159052371979 120:0.040492940694093704 121:0.018179407343268394 122:0.04627656564116478 123:0.0033942358568310738 124:0.004425541963428259 125:0.020866308361291885 126:0.13965125381946564 127:0.23430085182189941 128:0.046490710228681564 129:0.02336358092725277 130:0.0070050801150500774 131:0.045272376388311386 132:0.01308545470237732 133:0.041789568960666656 134:0.022950129583477974 135:0.27657485008239746 136:0.401740163564682 137:0.023936068639159203 138:0.0 139:0.0 140:0.01947104185819626 141:0.0 142:0.0 143:0.14822345972061157 144:0.46798768639564514 145:0.07045643776655197 146:0.13967163860797882 147:0.043832793831825256 148:0.015316520817577839 149:0.0904829204082489 150:0.1871291548013687 151:0.15199951827526093 152:0.18862594664096832 153:0.19693824648857117 154:0.21399107575416565 155:0.04184502363204956 156:0.06781275570392609 157:0.03195817396044731 158:0.027790118008852005 159:0.15960408747196198 160:0.21610277891159058 161:0.25501424074172974 162:0.21886025369167328 163:0.10873281210660934 164:0.1429271399974823 165:0.043635960668325424 166:0.02496006339788437 167:0.0 168:0.06768501549959183 169:0.44575679302215576 170:0.29699987173080444 171:0.23067107796669006 172:0.2761659026145935 173:0.12479130923748016 174:0.10216933488845825 175:0.12823158502578735 176:0.12665671110153198 177:0.0543244369328022 178:0.08818577975034714 179:0.05600103735923767 180:0.2560327649116516 181:0.43722090125083923 182:0.026367032900452614 183:0.0066123721189796925 184:0.015382437035441399 185:0.02702474594116211 186:0.014527150429785252 187:0.02268337272107601 188:0.022598180919885635 189:0.13208898901939392 190:0.44142645597457886 191:0.1353040635585785 192:0.14095447957515717 193:0.13970819115638733 194:0.037872523069381714 195:0.06700344383716583 196:0.0549340657889843 197:0.09835156798362732 198:0.20486195385456085 199:0.47797849774360657 200:0.014730717986822128 201:0.007625994272530079 202:0.017267737537622452 203:0.017294298857450485 204:0.007726994808763266 205:0.007795386947691441 206:0.007505836896598339 207:0.1292658895254135 208:0.2794661223888397 209:0.15815815329551697 210:0.10378298908472061 211:0.08541645109653473 212:0.0 213:0.06797108054161072 214:0.006493300665169954 215:0.22458365559577942 216:0.22980357706546783 217:0.23157550394535065 218:0.04002753645181656 219:0.01207719650119543 220:0.027097158133983612 221:0.033397600054740906 222:0.021344173699617386 223:0.055304042994976044 224:0.022022409364581108 225:0.29395750164985657 226:0.17928414046764374 227:0.07376746833324432 228:0.040965087711811066 229:0.0 230:0.027814295142889023 231:0.005325494334101677 232:0.04977080225944519 233:0.21456775069236755 234:0.5112389922142029 235:0.1400708109140396 236:0.06712564080953598 237:0.012459122575819492 238:0.007879841141402721 239:0.022946126759052277 240:0.04297224432229996 241:0.024265360087156296 242:0.02347809635102749 243:0.4038279950618744 244:0.21795564889907837 245:0.05491092428565025 246:0.013123057782649994 247:0.008796499110758305 248:0.01154659129679203 249:0.04511247202754021 250:0.054248400032520294 251:0.383882999420166 252:0.3289959132671356 253:0.33251988887786865 254:0.22548933327198029 255:0.17711232602596283 256:0.14716243743896484 257:0.04179650545120239 258:0.05467282608151436 259:0.12443821132183075 260:0.3010408282279968 261:0.1381016969680786 262:0.31331148743629456 263:0.13856241106987 264:0.0878240168094635 265:0.05941165238618851 266:0.06319867819547653 267:0.007895051501691341 268:0.08813653886318207 269:0.16705767810344696 270:0.2572997212409973 271:0.03253805264830589 272:0.1668180674314499 273:0.03356026113033295 274:0.08536257594823837 275:0.10182852298021317 276:0.19390220940113068 277:0.15075886249542236 278:0.11750150471925735 279:0.0846141055226326 280:0.10011859238147736 281:0.1612595170736313 282:0.16249458491802216 283:0.09348992258310318 284:0.4275161921977997 285:0.05022546648979187 286:0.08363724499940872 287:0.03168248012661934 288:0.16634909808635712 289:0.39925920963287354 290:0.029161857441067696 291:0.02642267569899559 292:0.03360363468527794 293:0.009795845486223698 294:0.020788993686437607 295:0.021122802048921585 296:0.0156589113175869 297:0.21035678684711456 298:0.20127107203006744 299:0.11736483871936798 300:0.04852668195962906 301:0.05180938169360161 302:0.03977487236261368 303:0.13667969405651093 304:0.16845886409282684 305:0.09189493209123611 306:0.208348348736763 307:0.1720740795135498 308:0.03545301407575607 309:0.0068757799454033375 310:0.05076942592859268 311:0.6256284713745117 312:0.06441756337881088 313:0.0038198779802769423 314:0.1037905216217041 315:0.12199792265892029 316:0.0271984301507473 317:0.09398730099201202 318:0.23003754019737244 319:0.08160333335399628 320:0.16828715801239014 321:0.1582837849855423 322:0.19871526956558228 323:0.11984427273273468 324:0.039098240435123444 
0.10017527303890048 0.12968732468394276 0.22606787147891827 0.10861029400518152 1:0.25298455357551575 2:0.4247755706310272 3:0.4159165918827057 4:0.09428933262825012 5:0.0 6:0.02519848570227623 7:0.07788149267435074 8:0.014401162043213844 9:0.119510717689991 10:0.08877655118703842 11:0.14495497941970825 12:0.1908254623413086 13:0.08638153970241547 14:0.18109863996505737 15:0.09057266265153885 16:0.1891990751028061 17:0.166009321808815 18:0.08209802210330963 19:0.1327076405286789 20:0.03810269013047218 21:0.013942948542535305 22:0.009830113500356674 23:0.12847009301185608 24:0.18242037296295166 25:0.2534411549568176 26:0.2400483340024948 27:0.03706628456711769 28:0.12311089038848877 29:0.06092866137623787 30:0.03624710440635681 31:0.06793633103370667 32:0.017734048888087273 33:0.0816996768116951 34:0.2931266129016876 35:0.18002508580684662 36:0.16170023381710052 37:0.3248773217201233 38:0.02774553932249546 39:0.08906418830156326 40:0.08937759697437286 41:0.3106309473514557 42:0.12935538589954376 43:0.10600896179676056 44:0.037443555891513824 45:0.17973309755325317 46:0.1864771693944931 47:0.19948293268680573 48:0.11146248131990433 49:0.11448781937360764 50:0.07722540944814682 51:0.0632328912615776 52:0.15068869292736053 53:0.16449716687202454 54:0.1246820017695427 55:0.5926412343978882 56:0.027994338423013687 57:0.02137136645615101 58:0.01503103505820036 59:0.019938213750720024 60:0.021282337605953217 61:0.008533559739589691 62:0.025441808626055717 63:0.11693712323904037 64:0.2595767080783844 65:0.14774200320243835 66:0.18279647827148438 67:0.1388169825077057 68:0.05813048779964447 69:0.06451721489429474 70:0.09005389362573624 71:0.060204021632671356 72:0.12296327203512192 73:0.10379519313573837 74:0.04481343552470207 75:0.0470203161239624 76:0.0468633808195591 77:0.0316656231880188 78:0.03847058489918709 79:0.35368892550468445 80:0.4612226188182831 81:0.12075326591730118 82:0.34667345881462097 83:0.13049428164958954 84:0.04894738644361496 85:0.013026561588048935 86:0.04648095369338989 87:0.07658638060092926 88:0.07042373716831207 89:0.35015174746513367 90:0.32345661520957947 91:0.10143613070249557 92:0.06950220465660095 93:0.043337851762771606 94:0.028377126902341843 95:0.04045242816209793 96:0.08848872035741806 97:0.1954001486301422 98:0.2529820203781128 99:0.0850091353058815 100:0.21592611074447632 101:0.12726323306560516 102:0.08169585466384888 103:0.060395728796720505 104:0.06911152601242065 105:0.012618208304047585 106:0.06538175046443939 107:0.11616312712430954 108:0.12413109093904495 109:0.23726415634155273 110:0.12641917169094086 111:0.07794811576604843 112:0.04386206716299057 113:0.07331158220767975 114:0.06211666762828827 115:0.35003533959388733 116:0.12688714265823364 117:0.13933151960372925 118:0.194831982254982 119:0.12342808395624161 120:0.038730669766664505 121:0.08572733402252197 122:0.08366812020540237 123:0.08632918447256088 124:0.0424535907804966 125:0.08578047156333923 126:0.30173254013061523 127:0.25645744800567627 128:0.16688396036624908 129:0.1495468020439148 130:0.05661843344569206 131:0.1671644151210785 132:0.06083287298679352 133:0.14621427655220032 134:0.21674586832523346 135:0.34190478920936584 136:0.3626689016819 137:0.0760154202580452 138:0.07122714817523956 139:0.08371787518262863 140:0.10493750125169754 141:0.017391258850693703 142:0.03316327556967735 143:0.12113048881292343 144:0.2513684928417206 145:0.5551656484603882 146:0.011874335817992687 147:0.006737103220075369 148:0.026332693174481392 149:0.008360176347196102 150:0.014730222523212433 151:0.018477046862244606 152:0.02329261042177677 153:0.1627650260925293 154:0.23583433032035828 155:0.20081572234630585 156:0.08556457608938217 157:0.0686197578907013 158:0.0016551584703847766 159:0.013658180832862854 160:0.06540445238351822 161:0.22001847624778748 162:0.2350510209798813 163:0.47707727551460266 164:0.06594152748584747 165:0.045579779893159866 166:0.008935118094086647 167:0.012187881395220757 168:0.011620976030826569 169:0.007974413223564625 170:0.004309067036956549 171:0.19715017080307007 172:0.1812676638364792 173:0.21858710050582886 174:0.08839363604784012 175:0.04448956623673439 176:0.08302504569292068 177:0.0423620268702507 178:0.03936247155070305 179:0.13933949172496796 180:0.2317824363708496 181:0.08079931139945984 182:0.014055361971259117 183:0.018160296604037285 184:0.0018748817965388298 185:0.08740022033452988 186:0.1496003270149231 187:0.3454573154449463 188:0.3174774646759033 189:0.42093226313591003 190:0.19211220741271973 191:0.11524098366498947 192:0.15773293375968933 193:0.05815094709396362 194:0.07013696432113647 195:0.21311266720294952 196:0.1204448789358139 197:0.10646433383226395 198:0.12414325773715973 199:0.11546340584754944 200:0.06381823122501373 201:0.034270282834768295 202:0.10139455646276474 203:0.07440213114023209 204:0.08902314305305481 205:0.1599297672510147 206:0.20858262479305267 207:0.25274986028671265 208:0.3032148778438568 209:0.12329071015119553 210:0.034536950290203094 211:0.011570345610380173 212:0.0 213:0.034702420234680176 214:0.2001289427280426 215:0.22254899144172668 216:0.14501343667507172 217:0.2002386897802353 218:0.2615653872489929 219:0.2691355049610138 220:0.1219225600361824 221:0.028140904381871223 222:0.07249189913272858 223:0.12562599778175354 224:0.03264894708991051 225:0.09388604760169983 226:0.15661650896072388 227:0.14210110902786255 228:0.15925481915473938 229:0.062472324818372726 230:0.03586174547672272 231:0.06549809873104095 232:0.01729486510157585 233:0.05748944729566574 234:0.2507774829864502 235:0.2308223992586136 236:0.1691819280385971 237:0.1437717229127884 238:0.0 239:0.04307972267270088 240:0.054378729313611984 241:0.1585732102394104 242:0.08427862823009491 243:0.2984941303730011 244:0.14266851544380188 245:0.04226812720298767 246:0.0741443857550621 247:0.1002463698387146 248:0.5896153450012207 249:0.053394876420497894 250:0.05670143663883209 251:0.05786662548780441 252:0.054253850132226944 253:0.35758787393569946 254:0.032058533281087875 255:0.011100157164037228 256:0.014734046533703804 257:0.06362619996070862 258:0.018015017732977867 259:0.023255005478858948 260:0.16293779015541077 261:0.16699041426181793 262:0.030870169401168823 263:0.028605245053768158 264:0.15894344449043274 265:0.03742281347513199 266:0.04956163093447685 267:0.1791452169418335 268:0.278480589389801 269:0.12835627794265747 270:0.15580861270427704 271:0.027768351137638092 272:0.036550018936395645 273:0.043316178023815155 274:0.11165295541286469 275:0.6515706181526184 276:0.052556756883859634 277:0.014952684752643108 278:0.08045757561922073 279:0.06013500317931175 280:0.15666376054286957 281:0.19825699925422668 282:0.13812865316867828 283:0.12473113089799881 284:0.1869266778230667 285:0.16099876165390015 286:0.10638587176799774 287:0.04962176829576492 288:0.054119814187288284 289:0.2338746339082718 290:0.2060699313879013 291:0.16137345135211945 292:0.058088332414627075 293:0.08682011067867279 294:0.11939393728971481 295:0.11632005125284195 296:0.05256093293428421 297:0.07223795354366302 298:0.2800253629684448 299:0.31322336196899414 300:0.05226597189903259 301:0.03253497928380966 302:0.011869994923472404 303:0.026728592813014984 304:0.19904311001300812 305:0.16798892617225647 306:0.08340234309434891 307:0.1919744610786438 308:0.43482506275177 309:0.5504171252250671 310:0.06269413977861404 311:0.07180666923522949 312:0.01786457560956478 313:0.029463494196534157 314:0.05917580425739288 315:0.06328020244836807 316:0.07293588668107986 317:0.12109005451202393 318:0.060437336564064026 319:0.049559108912944794 320:0.011368408799171448 321:0.01730615645647049 322:0.005990214645862579 323:0.027338560670614243 324:0.013635019771754742 
-0.16505510728839048 0.11156821574641455 0.14922140411802903 0.07149282808781435 1:0.25314876437187195 2:0.05092908442020416 3:0.10884920507669449 4:0.128738671541214 5:0.29513365030288696 6:0.029960842803120613 7:0.015321199782192707 8:0.029620260000228882 9:0.46207350492477417 10:0.08138933777809143 11:0.06955739110708237 12:0.01884450763463974 13:0.13484907150268555 14:0.3354128897190094 15:0.08604804426431656 16:0.07102648913860321 17:0.021517297253012657 18:0.03933481127023697 19:0.409912645816803 20:0.11235864460468292 21:0.023442063480615616 22:0.04396990314126015 23:0.0547485426068306 24:0.0658850371837616 25:0.022912271320819855 26:0.0748186707496643 27:0.21927016973495483 28:0.15538416802883148 29:0.1442766934633255 30:0.24879395961761475 31:0.14791817963123322 32:0.14056436717510223 33:0.06737325340509415 34:0.14826485514640808 35:0.017428938299417496 36:0.15910200774669647 37:0.18272434175014496 38:0.08872756361961365 39:0.0730489045381546 40:0.157931849360466 41:0.23964236676692963 42:0.024925827980041504 43:0.2254393845796585 44:0.12996946275234222 45:0.11577167361974716 46:0.1418018341064453 47:0.06799884885549545 48:0.07055982202291489 49:0.25750282406806946 50:0.3073541820049286 51:0.2450529932975769 52:0.10963083058595657 53:0.13346324861049652 54:0.26187455654144287 55:0.3005107641220093 56:0.11101755499839783 57:0.03557955473661423 58:0.03302459791302681 59:0.3474731743335724 60:0.05455564334988594 61:0.11030543595552444 62:0.053145457059144974 63:0.1550675630569458 64:0.22601263225078583 65:0.0320960208773613 66:0.09583862125873566 67:0.019545745104551315 68:0.3056672215461731 69:0.039460547268390656 70:0.007644347380846739 71:0.044489383697509766 72:0.1179041713476181 73:0.14769674837589264 74:0.10176312923431396 75:0.09024996310472488 76:0.03265482559800148 77:0.3559624254703522 78:0.001481766696088016 79:0.016511013731360435 80:0.032808925956487656 81:0.07696882635354996 82:0.10169191658496857 83:0.3378928601741791 84:0.30922460556030273 85:0.15915793180465698 86:0.5392559766769409 87:0.022093454375863075 88:0.09197810292243958 89:0.001481766696088016 90:0.04637482389807701 91:0.005301329772919416 92:0.02417086809873581 93:0.03439905866980553 94:0.06858401000499725 95:0.2779911458492279 96:0.12766285240650177 97:0.0691601037979126 98:0.1823362112045288 99:0.11488061398267746 100:0.04751536622643471 101:0.008618900552392006 102:0.013212917372584343 103:0.12897799909114838 104:0.13326582312583923 105:0.04759785532951355 106:0.26957157254219055 107:0.014243410900235176 108:0.11802347004413605 109:0.09499125927686691 110:0.06396693736314774 111:0.05510377883911133 112:0.07970637083053589 113:0.08282065391540527 114:0.06998594105243683 115:0.3101605772972107 116:0.18926817178726196 117:0.07376818358898163 118:0.08070334792137146 119:0.10693223029375076 120:0.022501925006508827 121:0.03957246243953705 122:0.0685708299279213 123:0.2677916884422302 124:0.5469755530357361 125:0.23233486711978912 126:0.27088871598243713 127:0.052527330815792084 128:0.11437313258647919 129:0.03395625576376915 130:0.08273784816265106 131:0.05365791171789169 132:0.1872333288192749 133:0.14982232451438904 134:0.14937302470207214 135:0.08559869229793549 136:0.1718621701002121 137:0.11256739497184753 138:0.026495622470974922 139:0.05041177198290825 140:0.06693412363529205 141:0.1803465187549591 142:0.22804772853851318 143:0.16806572675704956 144:0.16949553787708282 145:0.47870030999183655 146:0.010777312330901623 147:0.010560788214206696 148:0.014959664084017277 149:0.009181198664009571 150:0.004593309480696917 151:0.010164768435060978 152:0.001837155781686306 153:0.19186916947364807 154:0.42876800894737244 155:0.04152809828519821 156:0.0013342860620468855 157:0.002593385986983776 158:0.015118074603378773 159:0.006620362866669893 160:0.009887486696243286 161:0.01903349906206131 162:0.3073537051677704 163:0.4651747941970825 164:0.008924093097448349 165:0.011066019535064697 166:0.008492110297083855 167:0.007573890965431929 168:0.0058006108738482 169:0.003592433175072074 170:0.0014064611168578267 171:0.1404508799314499 172:0.4060308635234833 173:0.017515262588858604 174:0.001779048121534288 175:0.006842300295829773 176:0.005686925258487463 177:0.005587827414274216 178:0.0031133340671658516 179:0.010809718631207943 180:0.22515058517456055 181:0.48886871337890625 182:0.002756879199296236 183:0.004985509440302849 184:0.0045905583538115025 185:0.0061421808786690235 186:0.005514052230864763 187:0.005743585526943207 188:0.03239991515874863 189:0.21881906688213348 190:0.4044850468635559 191:0.0886852815747261 192:0.14744938910007477 193:0.01951318047940731 194:0.0012819227995350957 195:0.012334682047367096 196:0.0027579127345234156 197:0.007378917187452316 198:0.36360976099967957 199:0.4641399085521698 200:0.008209703490138054 201:0.011902778409421444 202:0.009090254083275795 203:0.002884326269850135 204:0.0069313570857048035 205:0.008693723008036613 206:0.006933057215064764 207:0.19531913101673126 208:0.26886677742004395 209:0.028478125110268593 210:0.11068283021450043 211:0.09723696857690811 212:0.05537022277712822 213:0.0520210862159729 214:0.07127296924591064 215:0.10299628973007202 216:0.1248389482498169 217:0.09700693190097809 218:0.11215253174304962 219:0.10119781643152237 220:0.1752372682094574 221:0.1596759855747223 222:0.05861130729317665 223:0.04291233792901039 224:0.07731763273477554 225:0.14705631136894226 226:0.04170691594481468 227:0.09186342358589172 228:0.22400233149528503 229:0.18183714151382446 230:0.4261060059070587 231:0.1256263703107834 232:0.07435667514801025 233:0.10615676641464233 234:0.09110415726900101 235:0.1248382180929184 236:0.022360065951943398 237:0.086358942091465 238:0.02695578522980213 239:0.3256164491176605 240:0.18854984641075134 241:0.008043291047215462 242:0.003999135922640562 243:0.002348373644053936 244:0.009774582460522652 245:0.0037131046410650015 246:0.0 247:0.020561575889587402 248:0.6245198845863342 249:0.07232256233692169 250:0.03281667083501816 251:0.0 252:0.004696747288107872 253:0.04399974271655083 254:0.03526771813631058 255:0.013772265985608101 256:0.08483712375164032 257:0.5336114168167114 258:0.082367904484272 259:0.07167132943868637 260:0.05493931472301483 261:0.10971556603908539 262:0.027422301471233368 263:0.009327289648354053 264:0.015530707314610481 265:0.11571554094552994 266:0.4752112329006195 267:0.35307297110557556 268:0.11274012923240662 269:0.0497831366956234 270:0.08833715319633484 271:0.009428800083696842 272:0.005214113742113113 273:0.013666239567101002 274:0.010356595739722252 275:0.40190574526786804 276:0.03694821149110794 277:0.011259034276008606 278:0.017660992220044136 279:0.007373870350420475 280:0.004197280388325453 281:0.0016815010458230972 282:0.030126171186566353 283:0.027327829971909523 284:0.33708781003952026 285:0.09678181260824203 286:0.034246064722537994 287:0.011273173615336418 288:0.0 289:0.09079854935407639 290:0.14902502298355103 291:0.14189918339252472 292:0.09537355601787567 293:0.6195351481437683 294:0.10648012906312943 295:0.014479774050414562 296:0.06592430174350739 297:0.03592565283179283 298:0.27232250571250916 299:0.08139366656541824 300:0.05544716864824295 301:0.003677002852782607 302:0.013287346810102463 303:0.015362227335572243 304:0.02903739921748638 305:0.054781582206487656 306:0.087712861597538 307:0.019662152975797653 308:0.023086078464984894 309:0.0 310:0.0776338130235672 311:0.47251397371292114 312:0.03352738916873932 313:0.02394944243133068 314:0.05164880305528641 315:0.0 316:0.026405612006783485 317:0.007995820604264736 318:0.02846773900091648 319:0.022598877549171448 320:0.443460613489151 321:0.0945994034409523 322:0.02753410115838051 323:0.02137293852865696 324:0.0 
-0.20644282940678937 0.13069545137341343 0.1645530737733279 0.21286550707130206 1:0.3806747794151306 2:0.07354144006967545 3:0.046025440096855164 4:0.08965162932872772 5:0.35791343450546265 6:0.028367070481181145 7:0.09945670515298843 8:0.07455336302518845 9:0.2725295424461365 10:0.4393421709537506 11:0.06575140357017517 12:0.14960795640945435 13:0.07940687239170074 14:0.14865778386592865 15:0.02428281493484974 16:0.22459469735622406 17:0.024098316207528114 18:0.16186082363128662 19:0.027249863371253014 20:0.02502642199397087 21:0.05308662727475166 22:0.06762168556451797 23:0.0598612055182457 24:0.15032748878002167 25:0.03519512340426445 26:0.021427500993013382 27:0.0 28:0.09175530821084976 29:0.23306690156459808 30:0.2085903137922287 31:0.12975068390369415 32:0.14026473462581635 33:0.2985670566558838 34:0.12314958870410919 35:0.021404128521680832 36:0.10385401546955109 37:0.02785804681479931 38:0.025155499577522278 39:0.018191738054156303 40:0.004032117780297995 41:0.1426270604133606 42:0.021861020475625992 43:0.03935173526406288 44:0.02355668507516384 45:0.04719924554228783 46:0.14172033965587616 47:0.047960273921489716 48:0.13436278700828552 49:0.2496386468410492 50:0.273791640996933 51:0.08755119144916534 52:0.06859808415174484 53:0.12330266088247299 54:0.10708999633789062 55:0.19035908579826355 56:0.041894134134054184 57:0.08955936878919601 58:0.020417172461748123 59:0.47950759530067444 60:0.0656961053609848 61:0.0058471872471272945 62:0.007503767963498831 63:0.06612754613161087 64:0.39129945635795593 65:0.29762330651283264 66:0.09151779860258102 67:0.05805789679288864 68:0.18016019463539124 69:0.14504849910736084 70:0.14316639304161072 71:0.06212765350937843 72:0.3740311563014984 73:0.07517819851636887 74:0.22790540754795074 75:0.12631988525390625 76:0.07163359969854355 77:0.19619329273700714 78:0.07768586277961731 79:0.028744185343384743 80:0.14398010075092316 81:0.06833133846521378 82:0.024669179692864418 83:0.041793353855609894 84:0.09526312351226807 85:0.10767624527215958 86:0.13173259794712067 87:0.013361640274524689 88:0.01873466931283474 89:0.034899819642305374 90:0.022968240082263947 91:0.010273361578583717 92:0.2712157666683197 93:0.025278767570853233 94:0.2716738283634186 95:0.2914542257785797 96:0.1601886749267578 97:0.1467699408531189 98:0.12605534493923187 99:0.23971453309059143 100:0.2871142327785492 101:0.0 102:0.044841229915618896 103:0.0610169880092144 104:0.17692987620830536 105:0.22578804194927216 106:0.4651849865913391 107:0.22470727562904358 108:0.1302340030670166 109:0.05174319073557854 110:0.1055338978767395 111:0.042074330151081085 112:0.03172978013753891 113:0.2052362561225891 114:0.0386083610355854 115:0.12422250211238861 116:0.13672000169754028 117:0.011434863321483135 118:0.18872469663619995 119:0.011899551376700401 120:0.008254262618720531 121:0.019586842507123947 122:0.09448496997356415 123:0.19058027863502502 124:0.5696588754653931 125:0.23018422722816467 126:0.27895864844322205 127:0.08539009094238281 128:0.07374481856822968 129:0.11847593635320663 130:0.07036913931369781 131:0.08121347427368164 132:0.19368594884872437 133:0.2154609113931656 134:0.14961853623390198 135:0.11458069831132889 136:0.18322356045246124 137:0.03001723624765873 138:0.024299446493387222 139:0.01188697014003992 140:0.0592128150165081 141:0.1214570552110672 142:0.1996161788702011 143:0.26340562105178833 144:0.21979978680610657 145:0.2016296088695526 146:0.018657486885786057 147:0.015178605914115906 148:0.009817948564887047 149:0.024929272010922432 150:0.009566298685967922 151:0.013928253203630447 152:0.011521738022565842 153:0.06591187417507172 154:0.4944773316383362 155:0.012594678439199924 156:0.005879226606339216 157:0.006824066396802664 158:0.0021798680536448956 159:0.01772184483706951 160:0.011497932486236095 161:0.008990145288407803 162:0.5386395454406738 163:0.27062445878982544 164:0.019201068207621574 165:0.01899763196706772 166:0.031075939536094666 167:0.012229005806148052 168:0.010271307080984116 169:0.006165597587823868 170:0.009370858781039715 171:0.005818168167024851 172:0.4755733013153076 173:0.00497086439281702 174:0.02354445680975914 175:0.0037322058342397213 176:0.006103630643337965 177:0.020629286766052246 178:0.010573319159448147 179:0.009601322934031487 180:0.33925989270210266 181:0.5529834032058716 182:0.0 183:0.005328488536179066 184:0.0028285887092351913 185:0.0028711268678307533 186:0.002091726055368781 187:0.006112804636359215 188:0.010017371736466885 189:0.33219000697135925 190:0.3658584654331207 191:0.00978570431470871 192:0.002080179052427411 193:0.007045933976769447 194:0.004637970123440027 195:0.0030139267910271883 196:0.010983496904373169 197:0.016604507341980934 198:0.0672663003206253 199:0.5519942045211792 200:0.007025688886642456 201:0.005957648623734713 202:0.005838184151798487 203:2.871126926038414E-4 204:0.004559529013931751 205:0.0024862175341695547 206:0.007763588335365057 207:0.24721162021160126 208:0.2459561824798584 209:0.0016772031085565686 210:0.013227710500359535 211:0.004007797222584486 212:0.010646931827068329 213:0.0036521460860967636 214:0.012400179170072079 215:0.0061788600869476795 216:0.133019357919693 217:0.062392447143793106 218:0.1429627388715744 219:0.1717832386493683 220:0.13611821830272675 221:0.041025761514902115 222:0.0661456361413002 223:0.0794648677110672 224:0.05961071699857712 225:0.048703499138355255 226:0.1324983537197113 227:0.16989359259605408 228:0.16500122845172882 229:0.09926334023475647 230:0.25244206190109253 231:0.22716687619686127 232:0.10130976885557175 233:0.1118232011795044 234:0.1329844743013382 235:0.013499376364052296 236:0.06075899302959442 237:0.1015266552567482 238:0.07443401962518692 239:0.5293119549751282 240:0.18712107837200165 241:0.03520076721906662 242:0.021789006888866425 243:0.08356960117816925 244:0.0207513514906168 245:0.020886877551674843 246:0.027170751243829727 247:0.10170793533325195 248:0.521145761013031 249:0.17772579193115234 250:0.061236076056957245 251:0.05918633192777634 252:0.06373865157365799 253:0.0869707241654396 254:0.0108647421002388 255:0.015318652614951134 256:0.026030980050563812 257:0.5481548309326172 258:0.0227007195353508 259:0.006250422913581133 260:0.0037869366351515055 261:0.08900496363639832 262:0.2292068749666214 263:0.024031292647123337 264:0.006089666858315468 265:0.01055699773132801 266:0.32931825518608093 267:0.07795955240726471 268:0.18769627809524536 269:0.06974951177835464 270:0.27420976758003235 271:0.0344613641500473 272:0.017817208543419838 273:0.020198633894324303 274:0.03665171191096306 275:0.3933950662612915 276:0.14140883088111877 277:0.04252016544342041 278:9.8016660194844E-4 279:0.005856412462890148 280:0.012720734812319279 281:0.01828829012811184 282:0.039816875010728836 283:0.04432804882526398 284:0.42867496609687805 285:0.1326184719800949 286:0.1116718128323555 287:0.027649953961372375 288:0.02963189221918583 289:0.20437246561050415 290:0.03688124567270279 291:0.021263008937239647 292:0.03328559175133705 293:0.5345621109008789 294:0.0308285690844059 295:0.053307950496673584 296:0.01627231203019619 297:0.2135106921195984 298:0.27149760723114014 299:0.05823444575071335 300:0.08945426344871521 301:0.08145756274461746 302:0.19891557097434998 303:0.013247801922261715 304:0.005785295739769936 305:0.017727335914969444 306:0.11946582794189453 307:0.002683105645701289 308:0.022040721029043198 309:0.05697373300790787 310:0.11318499594926834 311:0.4472774565219879 312:0.07218223810195923 313:0.03528878092765808 314:0.010206550359725952 315:0.009329955093562603 316:0.01999293453991413 317:0.04511100798845291 318:0.04703337326645851 319:0.10087688267230988 320:0.47432342171669006 321:0.07859208434820175 322:0.059423502534627914 323:0.03178911656141281 324:0.005584986414760351 
-0.10096696679352525 0.4230102709977708 0.1520349655977622 0.11961743529850682 1:0.02181258425116539 2:0.05469958856701851 3:0.005541203077882528 4:0.007906025275588036 5:0.4435769021511078 6:0.0839533656835556 7:0.01113295741379261 8:0.04439748451113701 9:0.002692540641874075 10:0.014604235999286175 11:0.05030731111764908 12:0.012572725303471088 13:0.09841088205575943 14:0.3471289277076721 15:0.13406650722026825 16:0.004617669619619846 17:0.0 18:0.002692540641874075 19:0.02126600407063961 20:0.027941305190324783 21:0.03835096210241318 22:0.17728422582149506 23:0.5487926602363586 24:0.004985555075109005 25:0.008794518187642097 26:0.006735264323651791 27:0.0182250514626503 28:0.026862142607569695 29:0.029277270659804344 30:0.01902197301387787 31:0.03970165178179741 32:0.5375975966453552 33:0.10226800292730331 34:0.017727505415678024 35:0.006560618057847023 36:0.01759352535009384 37:0.014829503372311592 38:0.01218738779425621 39:0.020390832796692848 40:0.027170555666089058 41:0.45253288745880127 42:0.0828024223446846 43:0.011571009643375874 44:0.02032276801764965 45:0.016235198825597763 46:0.011690531857311726 47:0.0026344256475567818 48:0.012036505155265331 49:0.05396503955125809 50:0.5001323819160461 51:0.14771635830402374 52:0.0020666136406362057 53:0.0032676029950380325 54:0.00231054425239563 55:0.03231754153966904 56:0.01627788506448269 57:0.02522142231464386 58:0.023697201162576675 59:0.5628778338432312 60:0.03702041134238243 61:0.016532909125089645 62:0.015822647139430046 63:0.021703537553548813 64:0.010556302964687347 65:0.018065737560391426 66:0.0020666136406362057 67:0.026086222380399704 68:0.43094414472579956 69:0.019706038758158684 70:0.04006645455956459 71:0.01377145852893591 72:0.01134828757494688 73:0.04679775983095169 74:0.002168727107346058 75:0.008229739964008331 76:0.05035324767231941 77:0.7492835521697998 78:0.1521056592464447 79:0.024240171536803246 80:0.0078344214707613 81:0.0 82:0.01493791863322258 83:0.002168727107346058 84:0.04828983545303345 85:0.032035037875175476 86:0.5441035032272339 87:0.201214998960495 88:0.01442838367074728 89:0.019667429849505424 90:0.010125888511538506 91:0.03426072746515274 92:0.009743764996528625 93:0.029942965134978294 94:0.056078556925058365 95:0.21966534852981567 96:0.036361128091812134 97:0.03797614574432373 98:0.014828355982899666 99:0.01580251194536686 100:0.03047722764313221 101:0.0208918284624815 102:0.026177488267421722 103:0.009201129898428917 104:0.08849509060382843 105:0.03566441684961319 106:0.031320828944444656 107:0.005665694363415241 108:0.011079544201493263 109:0.06503632664680481 110:0.14617124199867249 111:0.07949110120534897 112:0.23848259449005127 113:0.1785942018032074 114:0.07804317772388458 115:0.31842827796936035 116:0.15571148693561554 117:0.09379900991916656 118:0.08391265571117401 119:0.012992161326110363 120:0.006071238312870264 121:0.09975015372037888 122:0.6256310939788818 123:0.07964687794446945 124:0.01930907368659973 125:0.04143749549984932 126:0.13097503781318665 127:0.2721484303474426 128:0.061945050954818726 129:0.017031952738761902 130:0.009775117039680481 131:0.02752085216343403 132:0.003138601081445813 133:0.025685690343379974 134:0.1227392852306366 135:0.28613045811653137 136:0.3146130442619324 137:0.0963951051235199 138:0.016599245369434357 139:0.05643898621201515 140:0.05933259055018425 141:0.025838550180196762 142:0.0028936469461768866 143:0.01834537275135517 144:0.10801538079977036 145:0.2867441177368164 146:0.1625129133462906 147:0.10148017108440399 148:0.11111228168010712 149:0.31745991110801697 150:0.19042371213436127 151:0.09495056420564651 152:0.0 153:0.12784156203269958 154:0.09844466298818588 155:0.05840350687503815 156:0.1249426081776619 157:0.1299547702074051 158:0.4808832108974457 159:0.16265271604061127 160:0.024630321189761162 161:0.013230769895017147 162:0.025646120309829712 163:0.4886874258518219 164:0.1546362191438675 165:0.05419113487005234 166:0.03811350464820862 167:0.01252786722034216 168:0.03301410377025604 169:0.010939560830593109 170:0.10037045180797577 171:0.27634111046791077 172:0.19006484746932983 173:0.018050488084554672 174:0.010815588757395744 175:0.0 176:0.014828971587121487 177:0.020412586629390717 178:0.027311069890856743 179:0.021472731605172157 180:0.09079541265964508 181:0.19441787898540497 182:0.10899145156145096 183:0.021118002012372017 184:0.04612657427787781 185:0.3203245997428894 186:0.16969740390777588 187:0.05368635803461075 188:0.09733263403177261 189:0.13771913945674896 190:0.023403238505125046 191:0.02234448306262493 192:0.049192652106285095 193:0.0968310534954071 194:0.5226109623908997 195:0.17189666628837585 196:0.1644149124622345 197:0.09064672142267227 198:0.04599350318312645 199:0.5395121574401855 200:0.006806409452110529 201:0.0026134205982089043 202:0.0024197318125516176 203:0.007296410854905844 204:0.002626025350764394 205:0.0 206:0.029773380607366562 207:0.3637617230415344 208:0.0592842623591423 209:0.027736537158489227 210:0.03363185003399849 211:0.01650380715727806 212:0.01195135060697794 213:0.035640899091959 214:0.018750473856925964 215:0.005535995587706566 216:0.0160871222615242 217:0.06533309817314148 218:0.10257576406002045 219:0.09409556537866592 220:0.04469716176390648 221:0.34683215618133545 222:0.10724741220474243 223:0.021654361858963966 224:0.06986603885889053 225:0.10199946165084839 226:0.03893578425049782 227:0.04533066600561142 228:0.017270931974053383 229:0.04907732084393501 230:0.5221982598304749 231:0.07232106477022171 232:0.017501378431916237 233:0.07212810963392258 234:0.06172303110361099 235:0.01747724413871765 236:0.019537286832928658 237:0.010937128216028214 238:0.057411812245845795 239:0.36537498235702515 240:0.15165983140468597 241:0.01737959310412407 242:0.058130256831645966 243:0.018418679013848305 244:0.008263908326625824 245:0.0074106547981500626 246:0.005843465682119131 247:0.020245330408215523 248:0.6065101623535156 249:0.014563590288162231 250:0.0017530395416542888 251:0.0056364815682172775 252:0.0 253:0.12183797359466553 254:0.02979695238173008 255:0.01352686807513237 256:0.09902235865592957 257:0.2023618370294571 258:0.22923435270786285 259:0.34653735160827637 260:0.3240516185760498 261:0.12847056984901428 262:0.12252045422792435 263:0.018404865637421608 264:0.010879243724048138 265:0.061130840331315994 266:0.19794714450836182 267:0.2243461161851883 268:0.1887616366147995 269:0.004844094626605511 270:0.14034046232700348 271:0.02292519435286522 272:0.009688189253211021 273:0.01619003713130951 274:0.1024748757481575 275:0.46545588970184326 276:0.11897410452365875 277:0.009271221235394478 278:0.029259638860821724 279:0.016726795583963394 280:0.057217784225940704 281:0.0 282:0.006002177484333515 283:0.04447814077138901 284:0.2897920310497284 285:0.22796380519866943 286:0.2824687063694 287:0.0054495735093951225 288:0.10318375378847122 289:0.31273162364959717 290:0.02071239799261093 291:0.01860007643699646 292:0.04587402567267418 293:0.15112712979316711 294:0.045595213770866394 295:0.03242248669266701 296:0.08456352353096008 297:0.32698681950569153 298:0.0031800512224435806 299:0.09818312525749207 300:0.39927634596824646 301:0.17973704636096954 302:0.05688964203000069 303:0.07496488094329834 304:0.006204009987413883 305:0.0 306:0.007155320141464472 307:0.004736550617963076 308:0.011303266510367393 309:0.016634294763207436 310:0.1150258332490921 311:0.5785139203071594 312:0.06240122765302658 313:0.03624957799911499 314:0.039730995893478394 315:0.010452371090650558 316:3.914821718353778E-4 317:0.01106654480099678 318:0.1544252187013626 319:0.3201383948326111 320:0.18268181383609772 321:0.13036271929740906 322:0.12900413572788239 323:0.015125165693461895 324:0.005244147498160601 
-0.14290601214092963 0.19865696587629472 0.3129812221926815 0.23577525287061715 1:0.041330449283123016 2:0.037619784474372864 3:0.08623374998569489 4:0.04636947438120842 5:0.3210453689098358 6:0.07812917977571487 7:0.014316821470856667 8:0.014327102340757847 9:0.0 10:0.019548693671822548 11:0.014421086758375168 12:0.007731279358267784 13:0.056694768369197845 14:0.2751304507255554 15:0.052471764385700226 16:0.011818192899227142 17:0.0016425810754299164 18:0.007913212291896343 19:0.0915539413690567 20:0.06001824140548706 21:0.07325288653373718 22:0.15782834589481354 23:0.5559785962104797 24:0.16007693111896515 25:0.02555651031434536 26:0.12361757457256317 27:0.04923620820045471 28:0.016165349632501602 29:0.029722988605499268 30:0.08983922004699707 31:0.1919354498386383 32:0.5834075808525085 33:0.10920464992523193 34:0.012811996042728424 35:0.03359714895486832 36:0.013885986991226673 37:0.005121077410876751 38:0.0022291073109954596 39:0.006012028083205223 40:0.046351358294487 41:0.263199120759964 42:0.08099351078271866 43:0.027135612443089485 44:0.007190778851509094 45:0.0036763381212949753 46:0.0017832859884947538 47:0.009478353895246983 48:0.013640300370752811 49:0.016433965414762497 50:0.24432916939258575 51:0.08020077645778656 52:0.0012609735131263733 53:0.0029906616546213627 54:0.0018381690606474876 55:0.12912200391292572 56:0.11784956604242325 57:0.11743059009313583 58:0.08808675408363342 59:0.6191701889038086 60:0.0849803239107132 61:0.03670759126543999 62:0.04041200876235962 63:0.08600908517837524 64:0.10722222924232483 65:0.016368389129638672 66:0.11171828210353851 67:0.09968298673629761 68:0.5787174105644226 69:0.15401527285575867 70:0.05839057266712189 71:0.0025995634496212006 72:0.07170870155096054 73:0.005418664775788784 74:0.0023924405686557293 75:0.029673218727111816 76:0.07517673820257187 77:0.2611410319805145 78:0.08542490750551224 79:0.011324882507324219 80:0.00799882784485817 81:0.006409646011888981 82:0.006738434545695782 83:0.0041337511502206326 84:0.009146505035459995 85:0.015982219949364662 86:0.36746856570243835 87:0.0623025968670845 88:0.007181473076343536 89:0.008246300742030144 90:0.00743890181183815 91:0.06516659259796143 92:0.014354643411934376 93:0.00546571658924222 94:0.16763891279697418 95:0.5862730741500854 96:0.09727045893669128 97:0.16427432000637054 98:0.06421991437673569 99:0.07320539653301239 100:0.058654651045799255 101:0.029875438660383224 102:0.030805090442299843 103:0.048627130687236786 104:0.5592864751815796 105:0.15122681856155396 106:0.039052821695804596 107:0.09717332571744919 108:0.04121452197432518 109:0.12738732993602753 110:0.06994635611772537 111:0.04319150745868683 112:0.032926108688116074 113:0.0 114:0.0796106606721878 115:0.030306633561849594 116:0.08863890171051025 117:0.0733095183968544 118:0.10196341574192047 119:0.029696322977542877 120:0.029708504676818848 121:0.02569790743291378 122:0.03996821865439415 123:0.008217965252697468 124:0.013900507241487503 125:0.024542909115552902 126:0.16347140073776245 127:0.16664884984493256 128:0.03378789871931076 129:0.05221590772271156 130:0.054470472037792206 131:0.2081104815006256 132:0.12802116572856903 133:0.07243994623422623 134:0.04223337024450302 135:0.08046712726354599 136:0.007450299337506294 137:0.020565101876854897 138:0.020064599812030792 139:0.040611620992422104 140:0.8950797915458679 141:0.03185296058654785 142:0.005731584038585424 143:0.014953049831092358 144:0.025612080469727516 145:0.46451056003570557 146:0.05885973945260048 147:0.04820984601974487 148:0.008008966222405434 149:0.008035238832235336 150:0.006091986317187548 151:0.06115899607539177 152:0.046739641577005386 153:0.2106160670518875 154:0.490916907787323 155:0.029573341831564903 156:0.0023876759223639965 157:0.010770830325782299 158:0.0030543338507413864 159:0.008726528845727444 160:0.003303767181932926 161:0.01306199561804533 162:0.11783722043037415 163:0.10380326211452484 164:0.004341023974120617 165:0.04270172864198685 166:0.10945773869752884 167:0.38586705923080444 168:0.11826921254396439 169:0.1678222268819809 170:0.11733793467283249 171:0.05713114142417908 172:0.15871106088161469 173:0.019687646999955177 174:0.012375636957585812 175:0.006583176087588072 176:0.3017900586128235 177:0.31711462140083313 178:0.039543893188238144 179:0.10324882715940475 180:0.09762647747993469 181:0.15794816613197327 182:0.00760341202840209 183:0.01792169362306595 184:0.024702517315745354 185:0.030333181843161583 186:0.024973414838314056 187:0.0014478345401585102 188:0.03642132133245468 189:0.16983743011951447 190:0.18099188804626465 191:0.19433587789535522 192:0.07292645424604416 193:0.03793560341000557 194:0.03675957769155502 195:0.004095094744116068 196:0.07396600395441055 197:0.2083413004875183 198:0.21930623054504395 199:0.0012698349310085177 200:0.015427319332957268 201:0.2873545289039612 202:0.40193971991539 203:0.46779313683509827 204:0.12283224612474442 205:0.005466889124363661 206:0.0028956690803170204 207:0.13954903185367584 208:0.0233110710978508 209:0.20837782323360443 210:0.37811702489852905 211:0.18491186201572418 212:0.19156399369239807 213:0.09461303055286407 214:0.042104534804821014 215:0.015682009980082512 216:0.011360066011548042 217:0.514581561088562 218:0.026958836242556572 219:0.04897083714604378 220:0.01231415942311287 221:0.0541280135512352 222:0.0775122418999672 223:0.11305110156536102 224:0.20597048103809357 225:0.47412747144699097 226:0.031815458089113235 227:0.05359003692865372 228:0.04348406195640564 229:0.020246781408786774 230:0.0819486528635025 231:0.05774952098727226 232:0.08713947236537933 233:0.048273999243974686 234:0.01759476587176323 235:0.47599759697914124 236:0.05871159955859184 237:0.04385723918676376 238:0.062382929027080536 239:0.04619959741830826 240:0.06202187389135361 241:0.07518955320119858 242:0.1527676284313202 243:0.34912073612213135 244:0.02050943858921528 245:0.03316709026694298 246:0.11994334310293198 247:0.022653689607977867 248:0.042016349732875824 249:0.03742527589201927 250:0.04034320265054703 251:0.04274175688624382 252:0.028048977255821228 253:0.26069188117980957 254:0.03197287768125534 255:0.129116490483284 256:0.1068030297756195 257:0.20629215240478516 258:0.06487229466438293 259:0.04901781678199768 260:0.16027970612049103 261:0.16746853291988373 262:0.28751659393310547 263:0.0742432028055191 264:0.0868164673447609 265:0.19480305910110474 266:0.17036651074886322 267:0.2161911427974701 268:0.18245145678520203 269:0.07513312250375748 270:0.22498862445354462 271:0.21089698374271393 272:0.10232799500226974 273:0.0745345801115036 274:0.10143446922302246 275:0.11136659979820251 276:0.02646862342953682 277:0.14858181774616241 278:0.06508716940879822 279:0.010474530048668385 280:0.4692530333995819 281:0.035309985280036926 282:0.16535551846027374 283:0.15700040757656097 284:0.18312878906726837 285:0.05693903565406799 286:0.08231355994939804 287:0.15139035880565643 288:0.22545190155506134 289:0.2757631838321686 290:0.12228028476238251 291:0.12815023958683014 292:0.0822535902261734 293:0.16546179354190826 294:0.2845076322555542 295:0.23563329875469208 296:0.10944073647260666 297:0.09071753919124603 298:0.1798497587442398 299:0.11377842724323273 300:0.17096199095249176 301:0.2000194787979126 302:0.3626490831375122 303:0.12961837649345398 304:0.18892911076545715 305:0.052736252546310425 306:0.030475392937660217 307:0.2676342725753784 308:0.14379900693893433 309:0.08146465569734573 310:0.023646121844649315 311:0.10354238003492355 312:0.040325574576854706 313:0.015387588180601597 314:0.11395075917243958 315:0.11923851817846298 316:0.10692837089300156 317:0.08945237100124359 318:0.13935066759586334 319:0.19758805632591248 320:0.07702887803316116 321:0.22766956686973572 322:0.2868592143058777 323:0.16205811500549316 324:0.12654583156108856 
-0.04996899994454883 0.26277381698340974 0.0410881434281029 0.0 1:0.0020532195921987295 2:0.001147784641943872 3:0.0036296136677265167 4:0.003739622887223959 5:0.028745073825120926 6:0.002295569283887744 7:7.259226986207068E-4 8:0.0 9:0.0 10:0.006159658543765545 11:0.0 12:7.259226986207068E-4 13:0.0 14:0.007699573412537575 15:0.0 16:0.0014518453972414136 17:0.0 18:0.0 19:0.02256179228425026 20:0.04229564592242241 21:0.0754484236240387 22:0.03100256621837616 23:0.7091367244720459 24:0.15006151795387268 25:0.007020276505500078 26:0.001850747037678957 27:0.04075596481561661 28:0.004619744140654802 29:0.003286754945293069 30:0.0 31:0.0878521129488945 32:0.6580079197883606 33:0.1481088101863861 34:0.015328627079725266 35:0.008999106474220753 36:0.0 37:0.0015176835004240274 38:0.0 39:0.0 40:0.0 41:0.008600207045674324 42:0.0011312145506963134 43:0.0 44:0.0 45:0.0 46:0.0 47:0.0 48:0.0 49:0.0 50:0.009106101468205452 51:0.0 52:0.0 53:0.0 54:0.0 55:0.0030772362370043993 56:0.0018240285571664572 57:0.007618414703756571 58:0.09837686270475388 59:0.6449872851371765 60:0.07818149030208588 61:0.006902971304953098 62:0.01664232835173607 63:0.0 64:0.007172821089625359 65:0.0 66:0.012162528932094574 67:0.1039201021194458 68:0.7406765222549438 69:0.08627381175756454 70:0.021535998210310936 71:0.010702387429773808 72:0.00479933712631464 73:0.010197806172072887 74:0.0014251867542043328 75:0.0018027344485744834 76:0.0 77:0.01593407243490219 78:0.0 79:0.0018027344485744834 80:0.0014251867542043328 81:0.0 82:0.007648354396224022 83:0.0 84:0.0018027344485744834 85:0.0 86:0.01083516888320446 87:0.0 88:0.0 89:0.0014251867542043328 90:0.0 91:0.03356753662228584 92:0.003716432023793459 93:0.0209477711468935 94:0.07890737056732178 95:0.8095329403877258 96:0.09185940027236938 97:0.03408640995621681 98:0.018319545313715935 99:0.0 100:0.016140930354595184 101:0.0 102:0.008705981075763702 103:0.08391255885362625 104:0.554206371307373 105:0.09675601124763489 106:0.03708307445049286 107:0.02142663486301899 108:0.0254370030015707 109:0.307101309299469 110:0.111683689057827 111:0.08953461796045303 112:0.004863712936639786 113:0.031958628445863724 114:0.045901231467723846 115:0.03550788760185242 116:0.029890747740864754 117:0.20024509727954865 118:0.14805705845355988 119:0.01618804968893528 120:0.1211606115102768 121:0.12740200757980347 122:0.15642395615577698 123:0.05087001249194145 124:0.06740781664848328 125:0.10566539317369461 126:0.18308573961257935 127:0.07622040063142776 128:0.09107557684183121 129:0.05472477152943611 130:0.06741775572299957 131:0.25552862882614136 132:0.09919299185276031 133:0.16256196796894073 134:0.07934022694826126 135:0.023111863061785698 136:0.13272126019001007 137:0.08708139508962631 138:0.008077222853899002 139:0.05153714492917061 140:0.7108286619186401 141:0.11077791452407837 142:0.1038556918501854 143:0.12439557164907455 144:0.09301808476448059 145:0.2653553783893585 146:0.052126627415418625 147:0.052173394709825516 148:0.06628301739692688 149:0.13487425446510315 150:0.05928101763129234 151:0.010785109363496304 152:0.0 153:0.18986622989177704 154:0.30981627106666565 155:0.04969048127532005 156:0.011246230453252792 157:0.1384301483631134 158:0.14207512140274048 159:0.06341429799795151 160:0.027707619592547417 161:0.007054655812680721 162:0.20486974716186523 163:0.0770723894238472 164:0.0 165:0.005900039337575436 166:0.11039329320192337 167:0.6263692378997803 168:0.0 169:0.10591024160385132 170:0.13582709431648254 171:0.1478482037782669 172:0.19975855946540833 173:0.0944589301943779 174:0.0 175:0.03247792273759842 176:0.18578572571277618 177:0.2449386715888977 178:0.05436579883098602 179:0.0917738676071167 180:0.24361293017864227 181:0.03304046392440796 182:0.022657694295048714 183:0.009095150046050549 184:0.02021954394876957 185:0.24523800611495972 186:0.16931691765785217 187:0.18811026215553284 188:0.12139123678207397 189:0.12685522437095642 190:0.24962620437145233 191:0.09985022246837616 192:0.02547639235854149 193:0.03132518008351326 194:0.1267583966255188 195:0.09562291204929352 196:0.13265115022659302 197:0.05551306530833244 198:0.13727980852127075 199:0.01517608854919672 200:0.28248849511146545 201:0.26639625430107117 202:0.5179659128189087 203:0.14814630150794983 204:0.04070556163787842 205:0.02119189314544201 206:0.012549557723104954 207:0.026347516104578972 208:0.4447098672389984 209:0.10047938674688339 210:0.033158041536808014 211:0.11923954635858536 212:0.0500316359102726 213:0.04042813554406166 214:0.023377813398838043 215:0.06302057951688766 216:0.16794151067733765 217:0.3854053020477295 218:0.08413716405630112 219:0.08349907398223877 220:0.06881127506494522 221:0.2863076627254486 222:0.15260349214076996 223:0.09139957278966904 224:0.14471560716629028 225:0.1652172952890396 226:0.17689649760723114 227:0.052102796733379364 228:0.07069014012813568 229:0.1485636681318283 230:0.2570139467716217 231:0.12697583436965942 232:0.058206383138895035 233:0.4059065878391266 234:0.1504444032907486 235:0.016860216856002808 236:0.08072404563426971 237:0.056125909090042114 238:0.07667117565870285 239:0.36443835496902466 240:0.04801154136657715 241:0.17747339606285095 242:0.1985841989517212 243:0.07525131106376648 244:0.03774992376565933 245:0.0031710739713162184 246:0.017980339005589485 247:0.04133100435137749 248:0.23944930732250214 249:0.02979995310306549 250:0.1642472743988037 251:0.14046943187713623 252:0.02903549186885357 253:0.38063815236091614 254:0.039771538227796555 255:0.08760599046945572 256:0.11248443275690079 257:0.4586443603038788 258:0.10820186883211136 259:0.05882874131202698 260:0.20805567502975464 261:0.26827576756477356 262:0.14082852005958557 263:0.17166024446487427 264:0.16493968665599823 265:0.2828695774078369 266:0.18000298738479614 267:0.12690195441246033 268:0.3149517774581909 269:0.1909257024526596 270:0.09891746193170547 271:0.002558149164542556 272:0.003736793762072921 273:0.007722896058112383 274:0.07527611404657364 275:0.24531665444374084 276:0.10786699503660202 277:0.008894924074411392 278:0.01103680394589901 279:0.035406142473220825 280:0.025934984907507896 281:0.004685938823968172 282:0.04325142502784729 283:0.14336581528186798 284:0.15474027395248413 285:0.12266968935728073 286:0.017868883907794952 287:0.011870001442730427 288:0.019428040832281113 289:0.12606067955493927 290:0.09216076135635376 291:0.03526569902896881 292:0.047243598848581314 293:0.04667486995458603 294:0.022147161886096 295:0.14397461712360382 296:0.11371483653783798 297:0.16329528391361237 298:0.4129890501499176 299:0.09881708770990372 300:0.031095197424292564 301:0.08395858854055405 302:0.05021357908844948 303:0.055913109332323074 304:0.04518382251262665 305:0.02213912084698677 306:0.5266634821891785 307:0.11236350983381271 308:0.017203884199261665 309:0.10591097176074982 310:0.027715053409337997 311:0.030620723962783813 312:0.01360020786523819 313:0.015973417088389397 314:0.0021707997657358646 315:0.017744069918990135 316:0.46283072233200073 317:0.17142213881015778 318:0.03405265882611275 319:0.011290245689451694 320:0.07442785799503326 321:0.09929373115301132 322:0.0013729342026636004 323:0.01050092838704586 324:0.385033518075943 
